{"learner":{"attributes":{"best_iteration":"99","best_ntree_limit":"100","scikit_learn":"{\"n_estimators\": 100, \"objective\": \"reg:squarederror\", \"max_depth\": null, \"max_leaves\": null, \"max_bin\": null, \"grow_policy\": null, \"learning_rate\": null, \"verbosity\": null, \"booster\": null, \"tree_method\": null, \"gamma\": null, \"min_child_weight\": null, \"max_delta_step\": null, \"subsample\": null, \"sampling_method\": null, \"colsample_bytree\": null, \"colsample_bylevel\": null, \"colsample_bynode\": null, \"reg_alpha\": null, \"reg_lambda\": null, \"scale_pos_weight\": null, \"base_score\": null, \"missing\": NaN, \"num_parallel_tree\": null, \"random_state\": null, \"n_jobs\": null, \"monotone_constraints\": null, \"interaction_constraints\": null, \"importance_type\": null, \"gpu_id\": null, \"validate_parameters\": null, \"predictor\": null, \"enable_categorical\": false, \"feature_types\": null, \"max_cat_to_onehot\": null, \"max_cat_threshold\": null, \"eval_metric\": null, \"early_stopping_rounds\": null, \"callbacks\": null, \"evals_result_\": {\"validation_0\": {\"rmse\": [0.9142586559433449, 0.7863578292513222, 0.698746978712396, 0.6367363665434066, 0.5982324234104431, 0.5570609209584884, 0.5292757302174753, 0.49820951569174465, 0.4642712704031655, 0.44725216831931486, 0.4354084507311877, 0.40769567102593157, 0.3871113698750599, 0.3714733532111521, 0.3619156312078115, 0.3556001272376124, 0.336306927799613, 0.3233404380557339, 0.31101014364019464, 0.3058510492079165, 0.2949647336933364, 0.28750165912046, 0.279780152279162, 0.27226654682845064, 0.26790762590099587, 0.2595438636029627, 0.25653079559748826, 0.2519473312201071, 0.24394422809404268, 0.23698740608991617, 0.23479784661687308, 0.2328474394860466, 0.23136799272734887, 0.22008642787293034, 0.2144972696273331, 0.2104581924193345, 0.205916131669624, 0.20079422174110537, 0.19841802738168002, 0.19636571754680823, 0.19329861334189646, 0.18350424193106643, 0.17956733226631388, 0.1754241904794414, 0.1731088795738565, 0.17048902063406196, 0.16599167154353567, 0.1637821994243637, 0.15858438262867097, 0.1565025745069202, 0.153381362145618, 0.15027214835455488, 0.14875365057650125, 0.14511042015262715, 0.1426269373474521, 0.1398367485190974, 0.13853013945310347, 0.1362360817337818, 0.13459981389632325, 0.13363017047428566, 0.13131740895215338, 0.12506252685344424, 0.12285158744267813, 0.12068742024797559, 0.11964631403620067, 0.11813883257776757, 0.11655460552362096, 0.11340267637048859, 0.11169502498855742, 0.11139276341233513, 0.10366521199975573, 0.10204910724452079, 0.10052028364982048, 0.09910152948733736, 0.09564652384254609, 0.09008766357720928, 0.08861278655805899, 0.08836212863215007, 0.08466038908856775, 0.08282885753069885, 0.07993765298510441, 0.07731613202432837, 0.07506089594952312, 0.07360380892573937, 0.07077429128706021, 0.07026850626300608, 0.06967647459781809, 0.06898683607882197, 0.06777104799478635, 0.06661462378800995, 0.0662558837135164, 0.06478097277384667, 0.06409272313335339, 0.06248845121812484, 0.06082886970119268, 0.05825708326351068, 0.05683948168506462, 0.05552128401866307, 0.0553542377161051, 0.05441412097164964]}, \"validation_1\": {\"rmse\": [0.7272556301513042, 0.6257786378005271, 0.5447760606711879, 0.4906741322880189, 0.4632833136657258, 0.4556024725361666, 0.4414093820650308, 0.44013214462287675, 0.43683279160999305, 0.4254869645831381, 0.42576640667888405, 0.43169374717300063, 0.43460936471079226, 0.4473166012278751, 0.44368416566271035, 0.4516568590101825, 0.4570970318675513, 0.45486987514770955, 0.45778666089824177, 0.46246113936812255, 0.4713254087674141, 0.465107355590618, 0.47651580515643543, 0.47898881560847617, 0.48190697735138693, 0.48593761003140756, 0.48428145993083554, 0.4897063605612254, 0.4904068703024428, 0.49360146135775745, 0.49850452034034876, 0.5023327376338084, 0.5060175385118225, 0.5085384122169305, 0.5049590010140453, 0.5047114126335996, 0.5092329703437317, 0.5081502537270061, 0.5101073134399787, 0.512376555454946, 0.5129516061906464, 0.5202175720246568, 0.5214711385056264, 0.5273336180519487, 0.5292126762958889, 0.526119415569801, 0.5298500823282456, 0.5307572079102617, 0.5339539912331037, 0.5348239478413247, 0.5355572189954634, 0.5366712832778504, 0.5374075417275462, 0.5408047270185514, 0.5417123204586265, 0.5417239763978174, 0.5430142311141, 0.5421279350779565, 0.544720437461474, 0.5446634733353092, 0.5426292896203521, 0.5440418603564979, 0.5427717755068273, 0.5422523324162335, 0.5436528255327577, 0.5459264459281281, 0.5471290878970336, 0.5474310671894834, 0.5501739181469611, 0.5499751380535383, 0.5494697099904527, 0.5490569865101619, 0.5512340230166239, 0.5500458279539289, 0.5511911047968234, 0.5513165602535572, 0.5521770491561504, 0.5522201480865953, 0.5526973027358838, 0.5554345061844944, 0.5554665639927316, 0.5566640645025698, 0.5576588771828043, 0.5586998597124654, 0.5596250053285701, 0.5599147167935288, 0.5601214299038435, 0.5612572464548741, 0.5618090003106048, 0.562252804280034, 0.5626772165022623, 0.5635976151206886, 0.5645197648759419, 0.5649649963247563, 0.5642157939127168, 0.56375471086948, 0.5641497351463018, 0.5640426328916546, 0.5640616081289467, 0.5641067215272165]}}, \"_estimator_type\": \"regressor\"}"},"feature_names":["Year","WeekofYear","Minute","Month_11","DayofWeek_0","DayofWeek_1","DayofWeek_2","DayofWeek_3","DayofWeek_4","DayofWeek_5","DayofWeek_6","Hour_0","Hour_1","Hour_2","Hour_3","Hour_4","Hour_5","Hour_6","Hour_7","Hour_8","Hour_9","Hour_10","Hour_11","Hour_12","Hour_13","Hour_14","Hour_15","Hour_16","Hour_17","Hour_18","Hour_19","Hour_20","Hour_21","Hour_22","Hour_23"],"feature_types":["int","int","int","int","int","int","int","int","int","int","int","int","int","int","int","int","int","int","int","int","int","int","int","int","int","int","int","int","int","int","int","int","int","int","int"],"gradient_booster":{"model":{"gbtree_model_param":{"num_parallel_tree":"1","num_trees":"100","size_leaf_vector":"0"},"tree_info":[0,0,0,0,0,0,0,0,0,0,0,0,0,0,0,0,0,0,0,0,0,0,0,0,0,0,0,0,0,0,0,0,0,0,0,0,0,0,0,0,0,0,0,0,0,0,0,0,0,0,0,0,0,0,0,0,0,0,0,0,0,0,0,0,0,0,0,0,0,0,0,0,0,0,0,0,0,0,0,0,0,0,0,0,0,0,0,0,0,0,0,0,0,0,0,0,0,0,0,0],"trees":[{"base_weights":[6.8763363E-1,6.3352245E-1,1.8155667E0,5.8239645E-1,1.5649055E0,5.3717834E-1,1.4379243E0,1.6600364E0,2.5923336E-1,4.9117923E-1,1.2973973E0,1.8249704E0,6.118889E-1,4.464737E-1,1.2593546E0,1.4784367E0,2.6146665E-1,9.422667E-1,-2.443333E-2,4.0711197E-1,1.0857697E0,1.5594E0,3.7488335E-1,4.9446666E-1,-1.0226667E-1],"categories":[],"categories_nodes":[],"categories_segments":[],"categories_sizes":[],"default_left":[1,1,0,1,1,1,0,1,0,1,1,0,1,1,0,1,1,0,0,0,0,0,0,0,0],"id":0,"left_children":[1,3,-1,5,7,9,-1,11,-1,13,15,-1,17,19,-1,21,23,-1,-1,-1,-1,-1,-1,-1,-1],"loss_changes":[1.4230301E1,1.0612152E1,0E0,8.163887E0,1.0601788E0,7.0909767E0,0E0,7.8494835E-1,0E0,6.6494827E0,1.8639717E0,0E0,6.53703E-1,4.5907288E0,0E0,3.0887985E-1,3.0481708E-1,0E0,0E0,0E0,0E0,0E0,0E0,0E0,0E0],"parents":[2147483647,0,0,1,1,3,3,4,4,5,5,7,7,9,9,10,10,12,12,13,13,15,15,16,16],"right_children":[2,4,-1,6,8,10,-1,12,-1,14,16,-1,18,20,-1,22,24,-1,-1,-1,-1,-1,-1,-1,-1],"split_conditions":[5E-1,5E-1,5.4467005E-1,5E-1,5E-1,5E-1,4.313773E-1,5E-1,7.777001E-2,5E-1,5E-1,5.4749113E-1,4.55E1,5E-1,3.778064E-1,5E-1,4.55E1,2.8268003E-1,-7.329999E-3,1.221336E-1,3.2573092E-1,4.6782002E-1,1.1246501E-1,1.4834E-1,-3.0680003E-2],"split_indices":[18,29,0,31,8,30,0,10,0,32,10,0,1,19,0,8,1,0,0,0,0,0,0,0,0],"split_type":[0,0,0,0,0,0,0,0,0,0,0,0,0,0,0,0,0,0,0,0,0,0,0,0,0],"sum_hessian":[2.51E2,2.41E2,1E1,2.3E2,1.1E1,2.2E2,1E1,1E1,1E0,2.09E2,1.1E1,8E0,2E0,1.99E2,1E1,9E0,2E0,1E0,1E0,1.89E2,1E1,8E0,1E0,1E0,1E0],"tree_param":{"num_deleted":"0","num_feature":"35","num_nodes":"25","size_leaf_vector":"0"}},{"base_weights":[4.9483666E-1,4.5526573E-1,1.320412E0,1.0692042E0,4.0998697E-1,1.1560823E0,-1.1698347E-1,4.6528667E-1,-7.714346E-2,1.21835E0,1.4216653E-1,4.2273325E-1,1.2485502E0,-1.18394606E-1,4.3581653E-1,1.2809258E0,2.0243317E-1,4.586537E-1,-2.8766024E-1,8.7846214E-1,2.2896712E0,-1.5416253E-1,3.3424985E-1,1.3446418E0,2.5816655E-1,4.9573156E-1,-2.4349025E-1,9.3318284E-1,2.2034836E-1,-1.9002594E-1,2.9948455E-1],"categories":[],"categories_nodes":[],"categories_segments":[],"categories_sizes":[],"default_left":[1,1,0,1,1,1,0,1,1,1,0,1,1,1,0,1,0,1,0,1,0,1,0,0,0,0,0,0,0,0,0],"id":1,"left_children":[1,3,-1,5,7,9,-1,11,13,15,-1,17,19,21,-1,23,-1,25,-1,27,-1,29,-1,-1,-1,-1,-1,-1,-1,-1,-1],"loss_changes":[7.6313934E0,6.288849E0,0E0,1.7841015E0,6.15086E0,7.738075E-1,0E0,6.2716293E0,5.594429E-1,6.3070107E-1,0E0,5.1078796E0,1.8416748E0,4.2390233E-1,0E0,5.00021E-1,0E0,4.963032E0,0E0,1.1848688E-1,0E0,4.1483516E-1,0E0,0E0,0E0,0E0,0E0,0E0,0E0,0E0,0E0],"parents":[2147483647,0,0,1,1,3,3,4,4,5,5,7,7,8,8,9,9,11,11,12,12,13,13,15,15,17,17,19,19,21,21],"right_children":[2,4,-1,6,8,10,-1,12,14,16,-1,18,20,22,-1,24,-1,26,-1,28,-1,30,-1,-1,-1,-1,-1,-1,-1,-1,-1],"split_conditions":[5E-1,4.55E1,3.9612362E-1,5E-1,5E-1,5E-1,-3.5095043E-2,5E-1,5E-1,5E-1,4.264996E-2,5E-1,5E-1,5E-1,1.3074496E-1,5E-1,6.0729954E-2,5E-1,-8.629808E-2,5E-1,6.869014E-1,5E-1,1.0027496E-1,4.0339255E-1,7.744997E-2,1.4871947E-1,-7.304708E-2,2.7995485E-1,6.610451E-2,-5.7007786E-2,8.984537E-2],"split_indices":[18,1,0,34,10,33,0,29,33,22,0,12,9,20,0,21,0,11,0,8,0,19,0,0,0,0,0,0,0,0,0],"split_type":[0,0,0,0,0,0,0,0,0,0,0,0,0,0,0,0,0,0,0,0,0,0,0,0,0,0,0,0,0,0,0],"sum_hessian":[2.51E2,2.41E2,1E1,1.5E1,2.26E2,1.4E1,1E0,2.03E2,2.3E1,1.3E1,1E0,1.94E2,9E0,2.2E1,1E0,1.2E1,1E0,1.85E2,9E0,8E0,1E0,2.1E1,1E0,1.1E1,1E0,1.76E2,9E0,7E0,1E0,2E1,1E0],"tree_param":{"num_deleted":"0","num_feature":"35","num_nodes":"31","size_leaf_vector":"0"}},{"base_weights":[3.5524058E-1,3.8445082E-1,-3.196791E-1,4.15649E-1,-3.084973E-1,4.4797525E-1,-2.7453974E-1,-3.507884E-1,5.720678E-2,4.8098096E-1,-2.2885963E-1,-3.268284E-1,1.2417343E-1,5.1653075E-1,-2.1556775E-1,-2.4760695E-1,-2.0693213E-2,5.5400264E-1,-1.8448217E-1,-2.5981665E-1,-6.8859875E-2],"categories":[],"categories_nodes":[],"categories_segments":[],"categories_sizes":[],"default_left":[1,1,0,1,1,1,1,0,0,1,1,0,0,1,0,1,0,0,0,0,0],"id":2,"left_children":[1,3,-1,5,7,9,11,-1,-1,13,15,-1,-1,17,-1,19,-1,-1,-1,-1,-1],"loss_changes":[5.090973E0,5.359951E0,0E0,5.2991905E0,1.9019377E-1,5.0694313E0,2.6991332E-1,0E0,0E0,5.36092E0,3.7804425E-2,0E0,0E0,5.4084053E0,0E0,3.9334893E-3,0E0,0E0,0E0,0E0,0E0],"parents":[2147483647,0,0,1,1,3,3,4,4,5,5,6,6,9,9,10,10,13,13,15,15],"right_children":[2,4,-1,6,8,10,12,-1,-1,14,16,-1,-1,18,-1,20,-1,-1,-1,-1,-1],"split_conditions":[5E-1,5E-1,-9.590374E-2,5E-1,5E-1,5E-1,5E-1,-1.0523653E-1,1.7162034E-2,5E-1,5E-1,-9.804852E-2,3.725203E-2,5E-1,-6.467033E-2,5E-1,-6.207964E-3,1.662008E-1,-5.5344652E-2,-7.7944994E-2,-2.0657964E-2],"split_indices":[15,16,0,14,9,34,7,0,0,12,9,0,0,13,0,6,0,0,0,0,0],"split_type":[0,0,0,0,0,0,0,0,0,0,0,0,0,0,0,0,0,0,0,0,0],"sum_hessian":[2.51E2,2.41E2,1E1,2.31E2,1E1,2.21E2,1E1,9E0,1E0,2.11E2,1E1,9E0,1E0,2.01E2,1E1,9E0,1E0,1.91E2,1E1,8E0,1E0],"tree_param":{"num_deleted":"0","num_feature":"35","num_nodes":"21","size_leaf_vector":"0"}},{"base_weights":[2.4746445E-1,2.720899E-1,-3.1679204E-1,2.4545027E-1,8.0920804E-1,2.1622592E-1,7.6321125E-1,8.4369826E-1,2.3215276E-1,1.8711224E-1,7.5502235E-1,4.9384496E-1,1.8631201E0,1.5698835E-1,6.7358446E-1,8.4562075E-1,2.3155302E-1,5.223903E-1,1.04195684E-1,6.03202E-1,1.2529811E-1,8.0950594E-1,-4.0154457E-3,8.989522E-1,2.0948458E-1,5.652313E-1,-2.179018E-1],"categories":[],"categories_nodes":[],"categories_segments":[],"categories_sizes":[],"default_left":[1,1,0,1,1,1,1,0,0,1,1,1,0,1,1,1,1,0,0,0,0,0,0,0,0,0,0],"id":3,"left_children":[1,3,-1,5,7,9,11,-1,-1,13,15,17,-1,19,21,23,25,-1,-1,-1,-1,-1,-1,-1,-1,-1,-1],"loss_changes":[3.5877514E0,3.2640667E0,0E0,3.345418E0,2.3064137E-2,3.325409E0,2.6352472E0,0E0,0E0,2.986341E0,3.2587433E-1,6.791878E-2,0E0,2.7525434E0,1.1084557E0,1.17017746E-1,5.7308483E-1,0E0,0E0,0E0,0E0,0E0,0E0,0E0,0E0,0E0,0E0],"parents":[2147483647,0,0,1,1,3,3,4,4,5,5,6,6,9,9,10,10,11,11,13,13,14,14,15,15,16,16],"right_children":[2,4,-1,6,8,10,12,-1,-1,14,16,18,-1,20,22,24,26,-1,-1,-1,-1,-1,-1,-1,-1,-1,-1],"split_conditions":[5E-1,5E-1,-9.503762E-2,5E-1,5E-1,5E-1,5E-1,2.5310948E-1,6.964583E-2,5E-1,5E-1,5E-1,5.5893606E-1,4.55E1,5E-1,5E-1,4.55E1,1.5671709E-1,3.1258706E-2,1.809606E-1,3.7589435E-2,2.428518E-1,-1.2046337E-3,2.6968566E-1,6.284538E-2,1.695694E-1,-6.5370545E-2],"split_indices":[11,18,0,29,10,31,9,0,0,30,10,8,0,1,10,8,1,0,0,0,0,0,0,0,0,0,0],"split_type":[0,0,0,0,0,0,0,0,0,0,0,0,0,0,0,0,0,0,0,0,0,0,0,0,0,0,0],"sum_hessian":[2.51E2,2.41E2,1E1,2.31E2,1E1,2.2E2,1.1E1,9E0,1E0,2.1E2,1E1,1E1,1E0,1.99E2,1.1E1,8E0,2E0,9E0,1E0,1.2E1,1.87E2,9E0,2E0,7E0,1E0,1E0,1E0],"tree_param":{"num_deleted":"0","num_feature":"35","num_nodes":"27","size_leaf_vector":"0"}},{"base_weights":[1.8065192E-1,2.0023806E-1,-2.666661E-1,2.211078E-1,-2.581271E-1,2.4255702E-1,-2.3187698E-1,-2.8990602E-1,2.9831052E-2,2.659528E-1,-2.303942E-1,-2.7241522E-1,8.675271E-2,-3.1490183E-1,-1.2661512E-1,2.9093212E-1,-2.1693596E-1,-2.4179472E-1,-5.819449E-2,-2.9751635E-1,-1.1467379E-1,1.9480318E-2,-2.0940301E-1,3.1702462E-1,-1.9094877E-1,-2.3135276E-1,-3.6383957E-2,-3.15052E-1,-8.7383375E-2,-1.9243035E-1,2.0419657E-2],"categories":[],"categories_nodes":[],"categories_segments":[],"categories_sizes":[],"default_left":[1,1,0,1,1,1,1,1,0,1,1,1,0,0,1,1,1,0,0,1,1,0,0,0,0,0,0,0,0,0,0],"id":4,"left_children":[1,3,-1,5,7,9,11,13,-1,15,17,19,-1,-1,21,23,25,-1,-1,27,29,-1,-1,-1,-1,-1,-1,-1,-1,-1,-1],"loss_changes":[2.2612276E0,2.372037E0,0E0,2.3103933E0,1.09309256E-1,2.5177193E0,1.6571629E-1,9.445548E-4,0E0,2.620306E0,7.523656E-3,5.4775476E-3,0E0,0E0,4.036404E-2,2.600378E0,2.0215273E-2,0E0,0E0,1.9482374E-3,3.544256E-2,0E0,0E0,0E0,0E0,0E0,0E0,0E0,0E0,0E0,0E0],"parents":[2147483647,0,0,1,1,3,3,4,4,5,5,6,6,7,7,9,9,10,10,11,11,14,14,15,15,16,16,19,19,20,20],"right_children":[2,4,-1,6,8,10,12,14,-1,16,18,20,-1,-1,22,24,26,-1,-1,28,30,-1,-1,-1,-1,-1,-1,-1,-1,-1,-1],"split_conditions":[5E-1,5E-1,-7.9999834E-2,5E-1,5E-1,5E-1,5E-1,5E-1,8.949316E-3,5E-1,5E-1,5E-1,2.6025815E-2,-9.447055E-2,4.65E1,5E-1,5E-1,-7.253842E-2,-1.7458348E-2,5E-1,4.65E1,5.8440957E-3,-6.2820904E-2,9.510739E-2,-5.7284635E-2,-6.940583E-2,-1.0915187E-2,-9.451561E-2,-2.6215013E-2,-5.7729106E-2,6.1258976E-3],"split_indices":[15,16,0,14,9,11,7,6,0,34,10,6,0,0,1,12,9,0,0,10,1,0,0,0,0,0,0,0,0,0,0],"split_type":[0,0,0,0,0,0,0,0,0,0,0,0,0,0,0,0,0,0,0,0,0,0,0,0,0,0,0,0,0,0,0],"sum_hessian":[2.51E2,2.41E2,1E1,2.31E2,1E1,2.21E2,1E1,9E0,1E0,2.11E2,1E1,9E0,1E0,7E0,2E0,2.01E2,1E1,9E0,1E0,7E0,2E0,1E0,1E0,1.91E2,1E1,9E0,1E0,6E0,1E0,1E0,1E0],"tree_param":{"num_deleted":"0","num_feature":"35","num_nodes":"31","size_leaf_vector":"0"}},{"base_weights":[1.2446703E-1,9.464154E-2,3.9149684E-1,7.589314E-2,4.9576718E-1,2.79801E-1,1.5360985E0,5.5700175E-2,4.9235612E-1,2.2070538E-1,8.1950027E-1,3.4347024E-2,4.793285E-1,5.194969E-1,1.240443E-1,1.5703824E-1,8.1069124E-1,3.4443972E-1,1.1072319E-2,5.4912996E-1,1.3341512E-1,5.4699004E-1,1.497761E-1,1.8792127E-1,-2.4575263E-1,1.6410647E-1,1.3443859E0,-4.304717E-2,1.9456936E-1,5.9028906E-1,1.3050818E-1,4.3289292E-1,-2.3277023E-1,2.126176E-1,-1.5300278E-1],"categories":[],"categories_nodes":[],"categories_segments":[],"categories_sizes":[],"default_left":[1,1,1,1,0,1,0,1,1,1,0,1,1,1,0,1,0,1,1,1,1,0,0,1,0,0,0,0,0,0,0,0,0,0,0],"id":5,"left_children":[1,3,5,7,-1,9,-1,11,13,15,-1,17,19,21,-1,23,-1,25,27,29,31,-1,-1,33,-1,-1,-1,-1,-1,-1,-1,-1,-1,-1,-1],"loss_changes":[1.9699509E0,1.6770396E0,2.7663794E0,1.8142828E0,0E0,5.845846E-1,0E0,1.8831545E0,3.5522223E-2,7.3663294E-1,0E0,1.4468666E0,1.6819024E-1,9.557009E-3,0E0,3.198489E-1,0E0,2.303907E0,1.8753597E0,6.0803175E-2,4.297577E-1,0E0,0E0,2.0934218E-1,0E0,0E0,0E0,0E0,0E0,0E0,0E0,0E0,0E0,0E0,0E0],"parents":[2147483647,0,0,1,1,2,2,3,3,5,5,7,7,8,8,9,9,11,11,12,12,13,13,15,15,17,17,18,18,19,19,20,20,23,23],"right_children":[2,4,6,8,-1,10,-1,12,14,16,-1,18,20,22,-1,24,-1,26,28,30,32,-1,-1,34,-1,-1,-1,-1,-1,-1,-1,-1,-1,-1,-1],"split_conditions":[5E-1,5E-1,5E-1,5E-1,1.4873016E-1,5E-1,4.6082956E-1,5E-1,5E-1,5E-1,2.4585009E-1,4.55E1,5E-1,5E-1,3.7213292E-2,5E-1,2.4320738E-1,5E-1,5E-1,5E-1,4.55E1,1.6409701E-1,4.493283E-2,5E-1,-7.372579E-2,4.9231943E-2,4.0331578E-1,-1.2914152E-2,5.837081E-2,1.7708673E-1,3.915246E-2,1.2986788E-1,-6.983107E-2,6.3785285E-2,-4.5900837E-2],"split_indices":[9,32,29,18,0,30,0,31,8,22,0,1,10,10,0,13,0,26,4,8,1,0,0,15,0,0,0,0,0,0,0,0,0,0,0],"split_type":[0,0,0,0,0,0,0,0,0,0,0,0,0,0,0,0,0,0,0,0,0,0,0,0,0,0,0,0,0,0,0,0,0,0,0],"sum_hessian":[2.51E2,2.27E2,2.4E1,2.18E2,9E0,2.3E1,1E0,2.09E2,9E0,2.2E1,1E0,2E2,9E0,8E0,1E0,2.1E1,1E0,1.3E1,1.87E2,7E0,2E0,7E0,1E0,2E1,1E0,1.2E1,1E0,1.45E2,4.2E1,6E0,1E0,1E0,1E0,1.9E1,1E0],"tree_param":{"num_deleted":"0","num_feature":"35","num_nodes":"35","size_leaf_vector":"0"}},{"base_weights":[9.531462E-2,7.653105E-2,4.6460843E-1,9.177241E-2,-2.5049475E-1,2.6944852E-1,1.3056837E0,7.643192E-2,3.916338E-1,-3.0226782E-1,1.3361809E-1,1.4541958E-1,4.501443E-1,5.885383E-2,3.7767914E-1,4.0970966E-1,1.0543764E-1,-3.491393E-1,5.978778E-2,2.3712362E-1,-2.4825436E-1,1.453731E-1,6.822289E-1,4.090286E-2,3.7988475E-1,4.7683194E-1,-7.8723215E-2,4.463975E-1,1.7530553E-1,-3.9726737E-1,-1.2046073E-1,1.1066485E-1,4.9793816E-1,2.1614417E-2,3.7034845E-1,3.9921993E-1,9.326637E-2,5.301092E-1,-1.3318062E-3,6.393266E-2,-1.8201748E-1,4.737944E-1,1.2730968E-1,2.5411248E-1,8.845806E-3,9.5771104E-2,-2.764622E-1,3.6560184E-1,-1.3442916E-2],"categories":[],"categories_nodes":[],"categories_segments":[],"categories_sizes":[],"default_left":[1,1,1,1,1,1,0,1,1,1,0,1,1,1,1,1,0,1,0,1,0,0,0,1,1,1,1,1,1,0,1,1,0,0,0,0,0,0,0,0,0,0,0,0,0,0,0,0,0],"id":6,"left_children":[1,3,5,7,9,11,-1,13,15,17,-1,19,21,23,25,27,-1,29,-1,31,-1,-1,-1,33,35,37,39,41,43,-1,45,47,-1,-1,-1,-1,-1,-1,-1,-1,-1,-1,-1,-1,-1,-1,-1,-1,-1],"loss_changes":[1.7124805E0,1.2242087E0,1.6179156E0,1.0326713E0,2.5914228E-1,1.8106675E-1,0E0,1.1480445E0,1.3706803E-2,1.9057506E-1,0E0,3.476789E-1,1.8375313E-1,1.1946529E0,5.805806E-1,7.741928E-3,0E0,5.119753E-2,0E0,1.7577177E-1,0E0,0E0,0E0,1.2628937E0,2.3726344E-2,2.5545883E-1,5.5843465E-2,9.617567E-3,3.7106723E-2,0E0,1.2767455E-1,1.947527E-1,0E0,0E0,0E0,0E0,0E0,0E0,0E0,0E0,0E0,0E0,0E0,0E0,0E0,0E0,0E0,0E0,0E0],"parents":[2147483647,0,0,1,1,2,2,3,3,4,4,5,5,7,7,8,8,9,9,11,11,12,12,13,13,14,14,15,15,17,17,19,19,23,23,24,24,25,25,26,26,27,27,28,28,30,30,31,31],"right_children":[2,4,6,8,10,12,-1,14,16,18,-1,20,22,24,26,28,-1,30,-1,32,-1,-1,-1,34,36,38,40,42,44,-1,46,48,-1,-1,-1,-1,-1,-1,-1,-1,-1,-1,-1,-1,-1,-1,-1,-1,-1],"split_conditions":[5E-1,5E-1,5E-1,5E-1,5E-1,4.65E1,3.9170513E-1,5E-1,5E-1,5E-1,4.0085427E-2,5E-1,5E-1,5E-1,5E-1,5E-1,3.163129E-2,5E-1,1.7936334E-2,5E-1,-7.447631E-2,4.3611933E-2,2.0466869E-1,5E-1,5E-1,5E-1,4.55E1,5E-1,4.65E1,-1.1918022E-1,4.65E1,4.55E1,1.4938146E-1,6.4843255E-3,1.1110454E-1,1.1976598E-1,2.7979912E-2,1.5903278E-1,-3.9954187E-4,1.9179799E-2,-5.4605246E-2,1.4213833E-1,3.8192905E-2,7.6233745E-2,2.653742E-3,2.8731333E-2,-8.293866E-2,1.09680556E-1,-4.032875E-3],"split_indices":[29,13,9,18,10,1,0,30,8,8,0,4,4,19,10,4,0,5,0,7,0,0,0,31,8,8,1,10,1,0,1,1,0,0,0,0,0,0,0,0,0,0,0,0,0,0,0,0,0],"split_type":[0,0,0,0,0,0,0,0,0,0,0,0,0,0,0,0,0,0,0,0,0,0,0,0,0,0,0,0,0,0,0,0,0,0,0,0,0,0,0,0,0,0,0,0,0,0,0,0,0],"sum_hessian":[2.51E2,2.4E2,1.1E1,2.3E2,1E1,1E1,1E0,2.2E2,1E1,9E0,1E0,7E0,3E0,2.09E2,1.1E1,9E0,1E0,8E0,1E0,6E0,1E0,2E0,1E0,1.99E2,1E1,9E0,2E0,7E0,2E0,6E0,2E0,5E0,1E0,1.89E2,1E1,9E0,1E0,8E0,1E0,1E0,1E0,6E0,1E0,1E0,1E0,1E0,1E0,1E0,4E0],"tree_param":{"num_deleted":"0","num_feature":"35","num_nodes":"49","size_leaf_vector":"0"}},{"base_weights":[7.221457E-2,5.5912126E-2,3.9360413E-1,4.0398598E-2,3.4859538E-1,2.2759883E-1,1.1098312E0,2.4329677E-2,3.5810444E-1,4.8954204E-1,-2.374252E-1,1.2436281E-1,3.7717116E-1,7.5592436E-3,3.1438726E-1,5.515536E-1,1.6099717E-1,2.0241927E-1,-2.1101618E-1,1.1629852E-1,5.7989454E-1,3.2034257E-1,-1.1435499E-2,4.4212425E-1,-2.1619852E-1,5.902833E-1,1.402229E-1,-7.882711E-2,3.2032287E-1,9.507333E-2,4.2324746E-1,1.4248222E-1,3.1965554E-2,1.4228536E-1,1.1394858E0,-3.1094832E-2,3.2559997E-1,2.3350336E-1,6.966798E-1,-2.955097E-2,-2.9474682E-1,6.908316E-1,2.2594161E-1,3.1076157E-1,-1.0216636E-2],"categories":[],"categories_nodes":[],"categories_segments":[],"categories_sizes":[],"default_left":[1,1,1,1,1,1,0,1,0,1,0,1,1,1,1,1,1,1,0,1,0,1,1,1,1,1,0,0,0,1,0,0,0,0,0,0,0,0,0,0,0,0,0,0,0],"id":7,"left_children":[1,3,5,7,9,11,-1,13,-1,15,-1,17,19,21,23,25,27,29,-1,31,-1,33,35,37,39,41,-1,-1,-1,43,-1,-1,-1,-1,-1,-1,-1,-1,-1,-1,-1,-1,-1,-1,-1],"loss_changes":[1.2983304E0,1.0801897E0,1.1741737E0,1.1654811E0,1.1074013E0,1.2294769E-1,0E0,1.0677896E0,0E0,1.14937305E-1,0E0,2.521417E-1,1.4409912E-1,1.2453822E0,9.088919E-1,4.4674397E-2,1.3988066E-1,1.2569553E-1,0E0,2.069924E-3,0E0,1.5881199E0,1.3220512E0,3.6837888E-1,3.5272494E-2,1.003499E-1,0E0,0E0,0E0,1.3943379E-1,0E0,0E0,0E0,0E0,0E0,0E0,0E0,0E0,0E0,0E0,0E0,0E0,0E0,0E0,0E0],"parents":[2147483647,0,0,1,1,2,2,3,3,4,4,5,5,7,7,9,9,11,11,12,12,13,13,14,14,15,15,16,16,17,17,19,19,21,21,22,22,23,23,24,24,25,25,29,29],"right_children":[2,4,6,8,10,12,-1,14,-1,16,-1,18,20,22,24,26,28,30,-1,32,-1,34,36,38,40,42,-1,-1,-1,44,-1,-1,-1,-1,-1,-1,-1,-1,-1,-1,-1,-1,-1,-1,-1],"split_conditions":[5E-1,5E-1,5E-1,5E-1,5E-1,4.65E1,3.3294937E-1,5E-1,1.0743134E-1,5E-1,-7.122756E-2,5E-1,5E-1,4.55E1,5E-1,5E-1,4.65E1,5E-1,-6.330486E-2,5E-1,1.7396837E-1,5E-1,5E-1,4.65E1,4.55E1,5E-1,4.2066872E-2,-2.3648135E-2,9.6096866E-2,4.55E1,1.2697424E-1,4.2744666E-2,9.5896665E-3,4.268561E-2,3.4184575E-1,-9.32845E-3,9.7679995E-2,7.005101E-2,2.0900394E-1,-8.865291E-3,-8.842405E-2,2.0724949E-1,6.7782484E-2,9.3228474E-2,-3.0649907E-3],"split_indices":[29,22,9,32,10,1,0,21,0,5,0,4,4,1,10,7,1,7,0,5,0,26,20,1,1,6,0,0,0,1,0,0,0,0,0,0,0,0,0,0,0,0,0,0,0],"split_type":[0,0,0,0,0,0,0,0,0,0,0,0,0,0,0,0,0,0,0,0,0,0,0,0,0,0,0,0,0,0,0,0,0,0,0,0,0,0,0,0,0,0,0,0,0],"sum_hessian":[2.51E2,2.4E2,1.1E1,2.29E2,1.1E1,1E1,1E0,2.19E2,1E1,9E0,2E0,7E0,3E0,2.08E2,1.1E1,7E0,2E0,6E0,1E0,2E0,1E0,1.1E1,1.97E2,9E0,2E0,6E0,1E0,1E0,1E0,5E0,1E0,1E0,1E0,1E1,1E0,1.87E2,1E1,6E0,3E0,1E0,1E0,4E0,2E0,1E0,4E0],"tree_param":{"num_deleted":"0","num_feature":"35","num_nodes":"45","size_leaf_vector":"0"}},{"base_weights":[5.7667207E-2,3.660658E-2,2.4743344E-1,2.2591306E-2,3.1103596E-1,1.7913012E-1,9.433565E-1,2.8167525E-1,3.430274E-3,5.3772263E-2,9.7914845E-1,1.3285552E-1,6.2172306E-1,1.634288E-1,9.6856284E-1,2.0032736E-2,-3.2066077E-1,-7.237593E-2,3.3019397E-1,8.596525E-2,5.822207E-1,7.828205E-2,6.3516825E-1,-3.3062324E-2,1.3180433E-1,-4.0247947E-1,2.078538E-1,-1.7307319E-1,2.6590383E-1,1.0751374E-1,-1.8327644E-1,1.870807E-2,3.9658493E-1,-1.1143125E-2,-4.26016E-1,1.5772855E-1,-2.9001015E-1,-4.5549482E-1,-1.4461716E-1,-2.7502936E-1,1.683538E-1,1.3009569E-1,-1.720626E-1],"categories":[],"categories_nodes":[],"categories_segments":[],"categories_sizes":[],"default_left":[1,1,1,1,1,1,0,1,1,1,0,1,0,1,0,1,1,1,0,1,0,1,0,1,1,1,0,1,0,1,0,0,0,0,0,0,0,0,0,0,0,0,0],"id":8,"left_children":[1,3,5,7,9,11,-1,13,15,17,-1,19,-1,21,-1,23,25,27,-1,29,-1,31,-1,33,35,37,-1,39,-1,41,-1,-1,-1,-1,-1,-1,-1,-1,-1,-1,-1,-1,-1],"loss_changes":[9.980845E-1,8.699076E-1,1.0193626E0,1.0812546E0,1.8380411E0,4.089402E-1,0E0,1.0600393E0,1.1040884E0,3.3772895E-1,0E0,4.345788E-1,0E0,5.126168E-1,0E0,1.1615889E0,5.160806E-1,2.844678E-1,0E0,1.4734325E-1,0E0,2.3909408E-1,0E0,1.1408124E0,7.3466146E-1,5.7163596E-2,0E0,2.5516576E-1,0E0,1.5496555E-1,0E0,0E0,0E0,0E0,0E0,0E0,0E0,0E0,0E0,0E0,0E0,0E0,0E0],"parents":[2147483647,0,0,1,1,2,2,3,3,4,4,5,5,7,7,8,8,9,9,11,11,13,13,15,15,16,16,17,17,19,19,21,21,23,23,24,24,25,25,27,27,29,29],"right_children":[2,4,6,8,10,12,-1,14,16,18,-1,20,-1,22,-1,24,26,28,-1,30,-1,32,-1,34,36,38,-1,40,-1,42,-1,-1,-1,-1,-1,-1,-1,-1,-1,-1,-1,-1,-1],"split_conditions":[5E-1,5E-1,5E-1,4.55E1,5E-1,5E-1,2.8300697E-1,5E-1,5E-1,5E-1,2.9374453E-1,5E-1,1.8651693E-1,5E-1,2.9056886E-1,4.65E1,5E-1,5E-1,9.9058196E-2,5E-1,1.7466621E-1,5E-1,1.9055049E-1,5E-1,5E-1,5E-1,6.235614E-2,5E-1,7.977115E-2,5E-1,-5.4982934E-2,5.6124213E-3,1.1897548E-1,-3.3429374E-3,-1.278048E-1,4.7318567E-2,-8.700305E-2,-1.3664845E-1,-4.3385148E-2,-8.250881E-2,5.050614E-2,3.9028708E-2,-5.1618785E-2],"split_indices":[9,23,29,1,4,30,0,26,27,6,0,22,0,27,0,1,8,7,0,14,0,28,0,25,13,6,0,8,0,17,0,0,0,0,0,0,0,0,0,0,0,0,0],"split_type":[0,0,0,0,0,0,0,0,0,0,0,0,0,0,0,0,0,0,0,0,0,0,0,0,0,0,0,0,0,0,0,0,0,0,0,0,0,0,0,0,0,0,0],"sum_hessian":[2.51E2,2.27E2,2.4E1,2.17E2,1E1,2.3E1,1E0,1.4E1,2.03E2,8E0,2E0,2.2E1,1E0,1.3E1,1E0,1.94E2,9E0,6E0,2E0,2.1E1,1E0,1.2E1,1E0,1.32E2,6.2E1,8E0,1E0,5E0,1E0,2E1,1E0,1.1E1,1E0,1.26E2,6E0,5.9E1,3E0,6E0,2E0,4E0,1E0,1.9E1,1E0],"tree_param":{"num_deleted":"0","num_feature":"35","num_nodes":"43","size_leaf_vector":"0"}},{"base_weights":[4.566223E-2,3.2771952E-2,3.0073684E-1,2.0169925E-2,2.9443526E-1,1.8228512E-1,8.0185294E-1,7.4843275E-3,2.732015E-1,1.2822728E-1,3.6143172E-1,-6.563084E-3,2.5269035E-1,3.0923352E-1,7.4038304E-2,2.0263778E-2,2.851066E-1,-2.1315431E-2,2.6225802E-1,3.268655E-1,-7.8790285E-2,1.9949523E-1,4.6221164E-1,2.6134115E-1,-6.347264E-2,6.730803E-2,4.6925116E-1,-3.8134556E-2,2.4536206E-1,3.1138504E-1,2.7457654E-2,3.620275E-1,5.203724E-3,3.0193746E-2,-1.4837918E-1,2.1340348E-1,5.8022857E-2,1.4293832E-1,5.5037916E-1,-1.4431727E-1,1.7037523E-1,9.7450614E-2,3.5114288E-3],"categories":[],"categories_nodes":[],"categories_segments":[],"categories_sizes":[],"default_left":[1,1,1,1,0,1,0,1,1,1,0,1,1,1,0,1,1,1,1,1,1,1,1,0,1,1,0,0,0,0,0,0,0,0,0,0,0,0,0,0,0,0,0],"id":9,"left_children":[1,3,5,7,-1,9,-1,11,13,15,-1,17,19,21,-1,23,25,27,29,31,33,35,37,-1,39,41,-1,-1,-1,-1,-1,-1,-1,-1,-1,-1,-1,-1,-1,-1,-1,-1,-1],"loss_changes":[8.1871605E-1,7.887558E-1,5.66131E-1,7.394322E-1,0E0,6.0181618E-2,0E0,7.628951E-1,5.6043625E-2,1.6359508E-1,0E0,8.38396E-1,3.208053E-1,5.8879018E-2,0E0,1.5789671E-1,1.2884131E-1,9.064131E-1,1.18335605E-1,1.1121881E-1,2.7232356E-2,1.3911426E-3,5.7783723E-3,0E0,1.3802013E-1,5.4267915E-3,0E0,0E0,0E0,0E0,0E0,0E0,0E0,0E0,0E0,0E0,0E0,0E0,0E0,0E0,0E0,0E0,0E0],"parents":[2147483647,0,0,1,1,2,2,3,3,5,5,7,7,8,8,9,9,11,11,12,12,13,13,15,15,16,16,17,17,18,18,19,19,20,20,21,21,22,22,24,24,25,25],"right_children":[2,4,6,8,-1,10,-1,12,14,16,-1,18,20,22,-1,24,26,28,30,32,34,36,38,-1,40,42,-1,-1,-1,-1,-1,-1,-1,-1,-1,-1,-1,-1,-1,-1,-1,-1,-1],"split_conditions":[5E-1,5E-1,5E-1,5E-1,8.833058E-2,5E-1,2.405559E-1,5E-1,5E-1,4.65E1,1.0842952E-1,5E-1,5E-1,4.65E1,2.2211492E-2,4.55E1,5E-1,5E-1,5E-1,5E-1,4.55E1,5E-1,5E-1,7.840235E-2,5E-1,5E-1,1.4077535E-1,-1.1440367E-2,7.360862E-2,9.341551E-2,8.237297E-3,1.0860825E-1,1.5611172E-3,9.058124E-3,-4.4513755E-2,6.402104E-2,1.7406859E-2,4.2881496E-2,1.6511375E-1,-4.3295182E-2,5.111257E-2,2.9235186E-2,1.0534287E-3],"split_indices":[29,18,9,19,0,7,0,30,6,1,0,31,10,1,0,1,4,22,10,8,1,10,4,0,5,5,0,0,0,0,0,0,0,0,0,0,0,0,0,0,0,0,0],"split_type":[0,0,0,0,0,0,0,0,0,0,0,0,0,0,0,0,0,0,0,0,0,0,0,0,0,0,0,0,0,0,0,0,0,0,0,0,0,0,0,0,0,0,0],"sum_hessian":[2.51E2,2.4E2,1.1E1,2.3E2,1E1,1E1,1E0,2.2E2,1E1,9E0,1E0,2.09E2,1.1E1,8E0,2E0,6E0,3E0,1.99E2,1E1,9E0,2E0,6E0,2E0,1E0,5E0,2E0,1E0,1.88E2,1.1E1,8E0,2E0,8E0,1E0,1E0,1E0,5E0,1E0,1E0,1E0,4E0,1E0,1E0,1E0],"tree_param":{"num_deleted":"0","num_feature":"35","num_nodes":"43","size_leaf_vector":"0"}},{"base_weights":[3.6903147E-2,4.7677185E-2,-2.0348057E-1,5.8921255E-2,-1.9380474E-1,-2.2004695E-1,-1.8908352E-2,7.1170144E-2,-1.9364011E-1,-2.0801486E-1,-2.5851712E-2,-2.3536329E-1,-4.1099966E-2,8.383025E-2,-1.7929469E-1,-2.0595323E-1,-3.525451E-2,9.761373E-2,-1.7690533E-1,-1.9038525E-1,-3.419453E-2,-2.2354409E-1,-9.039321E-2,1.127571E-1,-1.7558104E-1,-2.12398E-1,8.90106E-2,-2.0317218E-1,-3.7651494E-2,9.1478825E-2,-2.2706863E-1],"categories":[],"categories_nodes":[],"categories_segments":[],"categories_sizes":[],"default_left":[1,1,1,1,1,1,0,1,1,0,0,0,0,1,1,1,0,1,1,1,0,0,1,0,0,0,0,0,0,0,0],"id":10,"left_children":[1,3,5,7,9,11,-1,13,15,-1,-1,-1,-1,17,19,21,-1,23,25,27,-1,-1,29,-1,-1,-1,-1,-1,-1,-1,-1],"loss_changes":[6.623571E-1,6.6850716E-1,2.94739E-2,7.314959E-1,2.0875454E-2,1.7734706E-2,0E0,7.189728E-1,1.41916275E-2,0E0,0E0,0E0,0E0,7.7916276E-1,1.1191517E-2,1.2111664E-4,0E0,8.5549045E-1,1.22724354E-1,1.1880219E-2,0E0,0E0,9.534428E-2,0E0,0E0,0E0,0E0,0E0,0E0,0E0,0E0],"parents":[2147483647,0,0,1,1,2,2,3,3,4,4,5,5,7,7,8,8,13,13,14,14,15,15,17,17,18,18,19,19,22,22],"right_children":[2,4,6,8,10,12,-1,14,16,-1,-1,-1,-1,18,20,22,-1,24,26,28,-1,-1,30,-1,-1,-1,-1,-1,-1,-1,-1],"split_conditions":[5E-1,5E-1,5E-1,5E-1,5E-1,5E-1,-5.6725056E-3,5E-1,5E-1,-6.240446E-2,-7.755514E-3,-7.060899E-2,-1.232999E-2,5E-1,5E-1,5E-1,-1.05763525E-2,5E-1,5E-1,5E-1,-1.0258359E-2,-6.706323E-2,4.65E1,3.3827133E-2,-5.2674312E-2,-6.37194E-2,2.670318E-2,-6.0951654E-2,-1.1295449E-2,2.744365E-2,-6.812059E-2],"split_indices":[16,15,9,17,10,10,0,11,7,0,0,0,0,14,10,5,0,34,7,7,0,0,1,0,0,0,0,0,0,0,0],"split_type":[0,0,0,0,0,0,0,0,0,0,0,0,0,0,0,0,0,0,0,0,0,0,0,0,0,0,0,0,0,0,0],"sum_hessian":[2.51E2,2.41E2,1E1,2.31E2,1E1,9E0,1E0,2.21E2,1E1,9E0,1E0,8E0,1E0,2.11E2,1E1,9E0,1E0,2.01E2,1E1,9E0,1E0,7E0,2E0,1.91E2,1E1,9E0,1E0,8E0,1E0,1E0,1E0],"tree_param":{"num_deleted":"0","num_feature":"35","num_nodes":"31","size_leaf_vector":"0"}},{"base_weights":[2.4183542E-2,8.537575E-3,1.6590741E-1,-3.050978E-3,2.3742549E-1,1.17431775E-1,6.646614E-1,2.0808777E-1,-1.856093E-2,3.405532E-2,7.683942E-1,8.2776904E-2,4.572469E-1,1.0693903E-1,8.1208503E-1,-3.7769733E-3,-3.04992E-1,1.2493407E-1,-1.8934686E-1,9.3982893E-1,2.127623E-1,4.643316E-2,4.4116968E-1,3.3826705E-2,5.2869964E-1,1.880898E-2,-1.734984E-1,-3.9997226E-1,2.7491522E-1,2.8823128E-1,-1.8887264E-1,-3.116685E-1,2.764818E-2,1.9920805E-2,3.0159628E-1,-1.7671699E-2,3.2590377E-1,1.6146996E-3,3.3194757E-1,-2.0132583E-1,2.1935254E-1,-5.7432866E-1,-3.844458E-2,-7.880692E-3,2.8797537E-1],"categories":[],"categories_nodes":[],"categories_segments":[],"categories_sizes":[],"default_left":[1,1,1,1,1,1,0,1,1,1,1,1,0,1,0,1,1,1,1,0,0,1,0,1,0,1,1,1,0,0,0,0,0,1,0,0,0,0,0,0,0,0,0,0,0],"id":11,"left_children":[1,3,5,7,9,11,-1,13,15,17,19,21,-1,23,-1,25,27,29,31,-1,-1,33,-1,35,-1,37,39,41,-1,-1,-1,-1,-1,43,-1,-1,-1,-1,-1,-1,-1,-1,-1,-1,-1],"loss_changes":[5.573702E-1,6.0548973E-1,5.2638304E-1,7.177582E-1,1.1616471E0,2.4478051E-1,0E0,8.295599E-1,8.6270326E-1,2.0637849E-1,8.580375E-2,2.7909786E-1,0E0,4.1381842E-1,0E0,7.507608E-1,6.607559E-1,4.131453E-1,8.824662E-2,0E0,0E0,1.428214E-1,0E0,2.012988E-1,0E0,9.309293E-1,2.9559797E-1,5.452323E-1,0E0,0E0,0E0,0E0,0E0,1.5876812E-1,0E0,0E0,0E0,0E0,0E0,0E0,0E0,0E0,0E0,0E0,0E0],"parents":[2147483647,0,0,1,1,2,2,3,3,4,4,5,5,7,7,8,8,9,9,10,10,11,11,13,13,15,15,16,16,17,17,18,18,21,21,23,23,25,25,26,26,27,27,33,33],"right_children":[2,4,6,8,10,12,-1,14,16,18,20,22,-1,24,-1,26,28,30,32,-1,-1,34,-1,36,-1,38,40,42,-1,-1,-1,-1,-1,44,-1,-1,-1,-1,-1,-1,-1,-1,-1,-1,-1],"split_conditions":[5E-1,5E-1,5E-1,4.55E1,5E-1,5E-1,1.9939843E-1,5E-1,5E-1,5E-1,4.65E1,5E-1,1.3717407E-1,5E-1,2.4362552E-1,5E-1,5E-1,5E-1,4.65E1,2.819487E-1,6.382869E-2,5E-1,1.323509E-1,5E-1,1.586099E-1,5E-1,5E-1,4.65E1,8.247457E-2,8.646939E-2,-5.6661792E-2,-9.350055E-2,8.294455E-3,5E-1,9.047889E-2,-5.30151E-3,9.777114E-2,4.844099E-4,9.9584274E-2,-6.039775E-2,6.580576E-2,-1.7229861E-1,-1.1533374E-2,-2.3642078E-3,8.639261E-2],"split_indices":[9,23,29,1,4,30,0,26,26,5,1,22,0,27,0,10,8,10,1,0,0,28,0,28,0,21,33,1,0,0,0,0,0,20,0,0,0,0,0,0,0,0,0,0,0],"split_type":[0,0,0,0,0,0,0,0,0,0,0,0,0,0,0,0,0,0,0,0,0,0,0,0,0,0,0,0,0,0,0,0,0,0,0,0,0,0,0,0,0,0,0,0,0],"sum_hessian":[2.51E2,2.27E2,2.4E1,2.17E2,1E1,2.3E1,1E0,1.4E1,2.03E2,8E0,2E0,2.2E1,1E0,1.3E1,1E0,1.94E2,9E0,6E0,2E0,1E0,1E0,2.1E1,1E0,1.2E1,1E0,1.72E2,2.2E1,8E0,1E0,4E0,2E0,1E0,1E0,2E1,1E0,1.1E1,1E0,1.64E2,8E0,2.1E1,1E0,5E0,3E0,1.9E1,1E0],"tree_param":{"num_deleted":"0","num_feature":"35","num_nodes":"45","size_leaf_vector":"0"}},{"base_weights":[2.2613509E-2,1.2860267E-2,2.3512906E-1,3.60336E-2,-8.4051095E-2,2.4557504E-1,6.533462E-2,2.4135929E-2,2.5491673E-1,-5.893554E-2,-4.3276733E-1,1.1074003E-2,2.5422463E-1,1.1675857E-2,8.1858677E-1,-7.875961E-2,2.4485461E-1,-2.5125935E-3,2.3958008E-1,7.2855145E-2,6.53135E-1,-1.0620632E-1,4.1842556E-1,-9.6489675E-2,1.8980451E-1,-1.422602E-2,2.0730679E-1,1.4065294E-1,5.6496215E-1,1.7268924E-1,-1.5109809E-1,7.988546E-1,1.8084794E-1,-2.1072061E-1,2.604397E-1,-7.581386E-2,-3.331121E-1],"categories":[],"categories_nodes":[],"categories_segments":[],"categories_sizes":[],"default_left":[1,1,1,1,1,0,0,1,1,1,0,1,1,1,0,1,0,1,1,1,1,1,0,1,0,0,0,0,0,0,0,0,0,0,0,0,0],"id":12,"left_children":[1,3,5,7,9,-1,-1,11,13,15,-1,17,19,21,-1,23,-1,25,27,29,31,33,-1,35,-1,-1,-1,-1,-1,-1,-1,-1,-1,-1,-1,-1,-1],"loss_changes":[5.193005E-1,5.465024E-1,3.4658313E-3,5.0427043E-1,3.861301E-1,0E0,0E0,5.5919486E-1,1.3615181E0,2.9029065E-1,0E0,5.532243E-1,6.759174E-1,4.2802778E-1,0E0,2.2306556E-1,0E0,4.183011E-1,2.4242753E-1,2.0495838E-1,6.1993122E-2,3.2311824E-1,0E0,1.7533231E-1,0E0,0E0,0E0,0E0,0E0,0E0,0E0,0E0,0E0,0E0,0E0,0E0,0E0],"parents":[2147483647,0,0,1,1,2,2,3,3,4,4,7,7,8,8,9,9,11,11,12,12,13,13,15,15,17,17,18,18,19,19,20,20,21,21,23,23],"right_children":[2,4,6,8,10,-1,-1,12,14,16,-1,18,20,22,-1,24,-1,26,28,30,32,34,-1,36,-1,-1,-1,-1,-1,-1,-1,-1,-1,-1,-1,-1,-1],"split_conditions":[5E-1,5E-1,5E-1,5E-1,5E-1,7.367252E-2,1.9600386E-2,5E-1,5E-1,5E-1,-1.2983021E-1,5E-1,5E-1,4.65E1,2.4557604E-1,5E-1,7.3456384E-2,5E-1,5E-1,5E-1,4.65E1,5E-1,1.2552768E-1,5E-1,5.6941357E-2,-4.267806E-3,6.2192038E-2,4.2195883E-2,1.6948865E-1,5.1806774E-2,-4.532943E-2,2.3965639E-1,5.4254387E-2,-6.321619E-2,7.8131914E-2,-2.2744158E-2,-9.993363E-2],"split_indices":[32,5,6,24,26,0,0,23,4,31,0,29,4,1,0,20,0,18,9,10,1,8,0,24,0,0,0,0,0,0,0,0,0,0,0,0,0],"split_type":[0,0,0,0,0,0,0,0,0,0,0,0,0,0,0,0,0,0,0,0,0,0,0,0,0,0,0,0,0,0,0,0,0,0,0,0,0],"sum_hessian":[2.51E2,2.41E2,1E1,1.95E2,4.6E1,9E0,1E0,1.86E2,9E0,4.4E1,2E0,1.77E2,9E0,7E0,2E0,4.2E1,2E0,1.68E2,9E0,7E0,2E0,6E0,1E0,4E1,2E0,1.6E2,8E0,8E0,1E0,5E0,2E0,1E0,1E0,5E0,1E0,3.8E1,2E0],"tree_param":{"num_deleted":"0","num_feature":"35","num_nodes":"37","size_leaf_vector":"0"}},{"base_weights":[1.9508744E-2,2.7899822E-2,-1.6686852E-1,3.6836036E-2,-1.6310935E-1,-1.775215E-1,-3.0169398E-2,2.183646E-2,1.721871E-1,-2.0763038E-1,1.4105046E-1,-6.046263E-3,8.6992115E-2,1.3635762E-1,4.8021793E-1,-2.4133456E-1,4.785362E-2,1.0272041E-2,-2.929006E-1,1.518822E-1,-3.246377E-2,1.05632395E-1,3.9079368E-1,-2.8194073E-1,-6.614199E-2,1.8289752E-1,-1.0197679E-2,-4.170734E-1,2.8815457E-1,1.2038927E-1,5.1066285E-1,-5.658538E-2,2.4910581E-1,7.32012E-2,3.7712812E-1,8.767763E-2,-1.8689062E-1],"categories":[],"categories_nodes":[],"categories_segments":[],"categories_sizes":[],"default_left":[1,1,1,1,1,0,0,1,1,1,0,1,1,1,0,1,0,1,1,1,1,1,0,0,1,0,0,0,0,0,0,0,0,0,0,0,0],"id":13,"left_children":[1,3,5,7,9,-1,-1,11,13,15,-1,17,19,21,-1,23,-1,25,27,29,31,33,-1,-1,35,-1,-1,-1,-1,-1,-1,-1,-1,-1,-1,-1,-1],"loss_changes":[3.9876002E-1,4.1907772E-1,1.0663092E-2,4.672484E-1,1.7824289E-1,0E0,0E0,3.820366E-1,1.8836015E-1,9.765756E-2,0E0,6.9579315E-1,4.932753E-1,1.3070688E-1,0E0,4.5376956E-2,0E0,5.0010204E-1,6.9739175E-1,4.017827E-1,1.7030971E-1,1.5729731E-1,0E0,0E0,7.210665E-2,0E0,0E0,0E0,0E0,0E0,0E0,0E0,0E0,0E0,0E0,0E0,0E0],"parents":[2147483647,0,0,1,1,2,2,3,3,4,4,7,7,8,8,9,9,11,11,12,12,13,13,15,15,17,17,18,18,19,19,20,20,21,21,24,24],"right_children":[2,4,6,8,10,-1,-1,12,14,16,-1,18,20,22,-1,24,-1,26,28,30,32,34,-1,-1,36,-1,-1,-1,-1,-1,-1,-1,-1,-1,-1,-1,-1],"split_conditions":[5E-1,5E-1,5E-1,5E-1,5E-1,-5.3256452E-2,-9.05082E-3,4.65E1,5E-1,5E-1,4.231514E-2,5E-1,5E-1,5E-1,1.4406538E-1,5E-1,1.4356086E-2,4.55E1,5E-1,5E-1,5E-1,5E-1,1.1723811E-1,-8.4582224E-2,4.65E1,5.486926E-2,-3.0593036E-3,-1.2512203E-1,8.6446375E-2,3.6116783E-2,1.5319887E-1,-1.6975615E-2,7.4731745E-2,2.196036E-2,1.13138445E-1,2.630329E-2,-5.6067187E-2],"split_indices":[12,13,7,9,10,0,0,1,29,8,0,25,5,30,0,5,0,1,8,21,31,22,0,0,1,0,0,0,0,0,0,0,0,0,0,0,0],"split_type":[0,0,0,0,0,0,0,0,0,0,0,0,0,0,0,0,0,0,0,0,0,0,0,0,0,0,0,0,0,0,0,0,0,0,0,0,0],"sum_hessian":[2.51E2,2.41E2,1E1,2.31E2,1E1,9E0,1E0,2.09E2,2.2E1,9E0,1E0,1.47E2,6.2E1,2.1E1,1E0,8E0,1E0,1.4E2,7E0,4E1,2.2E1,2E1,1E0,6E0,2E0,1.4E1,1.26E2,6E0,1E0,3.8E1,2E0,2.1E1,1E0,1.9E1,1E0,1E0,1E0],"tree_param":{"num_deleted":"0","num_feature":"35","num_nodes":"37","size_leaf_vector":"0"}},{"base_weights":[1.5785582E-2,7.5260256E-3,1.9606079E-1,-4.5057564E-4,1.6044843E-1,2.302358E-1,2.8182188E-2,-8.734092E-3,1.6601376E-1,1.0081915E-1,4.0818524E-1,1.3631928E-1,3.7262908E-1,-1.6566742E-2,1.4230438E-1,5.680246E-2,2.7049303E-1,1.5032566E-1,2.6140511E-2,-2.5601672E-2,1.3539599E-1,1.8402033E-1,-3.0278286E-2,-2.5928196E-2,1.873805E-1,1.6579759E-1,3.648299E-2,-3.518696E-2,1.4228986E-1,1.8708965E-1,-8.2048215E-2,8.3799146E-2,4.928949E-1,2.117399E-1,-2.5715733E-1,1.5934455E-1,-8.336441E-2,2.147309E-2,3.4255135E-1,1.8719232E-1,4.0109336E-2],"categories":[],"categories_nodes":[],"categories_segments":[],"categories_sizes":[],"default_left":[1,1,1,1,1,1,0,1,0,1,0,1,0,1,1,1,0,1,0,1,1,1,1,1,1,1,0,0,0,0,0,0,0,0,0,0,0,0,0,0,0],"id":14,"left_children":[1,3,5,7,9,11,-1,13,-1,15,-1,17,-1,19,21,23,-1,25,-1,27,29,31,33,35,37,39,-1,-1,-1,-1,-1,-1,-1,-1,-1,-1,-1,-1,-1,-1,-1],"loss_changes":[3.737508E-1,2.9526415E-1,5.6621224E-2,3.199782E-1,1.3611552E-1,6.956121E-2,0E0,2.6380742E-1,0E0,6.678865E-2,0E0,6.8728477E-3,0E0,2.9316357E-1,8.476578E-2,1.1288651E-1,0E0,4.519418E-3,0E0,3.2686454E-1,1.502362E-1,2.3729783E-1,2.1917702E-1,8.7773226E-2,9.5620334E-2,5.937159E-3,0E0,0E0,0E0,0E0,0E0,0E0,0E0,0E0,0E0,0E0,0E0,0E0,0E0,0E0,0E0],"parents":[2147483647,0,0,1,1,2,2,3,3,4,4,5,5,7,7,9,9,11,11,13,13,14,14,15,15,17,17,19,19,20,20,21,21,22,22,23,23,24,24,25,25],"right_children":[2,4,6,8,10,12,-1,14,-1,16,-1,18,-1,20,22,24,-1,26,-1,28,30,32,34,36,38,40,-1,-1,-1,-1,-1,-1,-1,-1,-1,-1,-1,-1,-1,-1,-1],"split_conditions":[5E-1,5E-1,5E-1,5E-1,5E-1,4.65E1,8.454657E-3,5E-1,4.9804132E-2,5E-1,1.22455575E-1,5E-1,1.1178873E-1,5E-1,4.65E1,4.65E1,8.114791E-2,5E-1,7.842153E-3,5E-1,5E-1,5E-1,5E-1,4.55E1,5E-1,5E-1,1.0944897E-2,-1.0556089E-2,4.268696E-2,5.6126896E-2,-2.4614466E-2,2.5139745E-2,1.4786847E-1,6.3521974E-2,-7.71472E-2,4.780337E-2,-2.5009325E-2,6.441927E-3,1.0276541E-1,5.6157697E-2,1.2032801E-2],"split_indices":[19,29,6,32,9,1,0,31,0,7,0,4,0,30,1,1,0,7,0,18,10,4,4,1,4,8,0,0,0,0,0,0,0,0,0,0,0,0,0,0,0],"split_type":[0,0,0,0,0,0,0,0,0,0,0,0,0,0,0,0,0,0,0,0,0,0,0,0,0,0,0,0,0,0,0,0,0,0,0,0,0,0,0,0,0],"sum_hessian":[2.51E2,2.41E2,1E1,2.3E2,1.1E1,8E0,2E0,2.2E2,1E1,1E1,1E0,6E0,2E0,2.1E2,1E1,9E0,1E0,5E0,1E0,1.99E2,1.1E1,8E0,2E0,6E0,3E0,4E0,1E0,1.89E2,1E1,9E0,2E0,7E0,1E0,1E0,1E0,1E0,5E0,2E0,1E0,3E0,1E0],"tree_param":{"num_deleted":"0","num_feature":"35","num_nodes":"41","size_leaf_vector":"0"}},{"base_weights":[1.4286649E-2,2.0952197E-2,-1.3365416E-1,2.7993798E-2,-1.2946635E-1,-6.865737E-2,-2.302342E-1,3.5458565E-2,-1.2520365E-1,-1.3815959E-1,-2.1266967E-2,-1.0013213E-1,7.583296E-2,4.3158773E-2,-1.1616896E-1,-1.4115733E-1,1.7166525E-2,-1.5459497E-1,-4.8278708E-2,-1.18222654E-1,4.20551E-3,3.0655801E-2,1.5541649E-1,-1.2980089E-1,1.0075152E-2,-8.921841E-2,-1.9676112E-1,9.569454E-2,-1.681126E-1,-1.344839E-1,-1.8458217E-2,2.4841072E-3,9.733465E-2,1.756331E-1,-1.24457985E-1,-1.3904446E-1,-2.3304373E-2,-1.1513914E-1,3.3152997E-2],"categories":[],"categories_nodes":[],"categories_segments":[],"categories_sizes":[],"default_left":[1,1,1,1,1,1,0,1,1,1,0,1,0,1,1,1,0,0,1,1,0,1,1,1,0,1,0,0,0,0,0,0,0,0,0,0,0,0,0],"id":15,"left_children":[1,3,5,7,9,11,-1,13,15,17,-1,19,-1,21,23,25,-1,-1,27,29,-1,31,33,35,-1,37,-1,-1,-1,-1,-1,-1,-1,-1,-1,-1,-1,-1,-1],"loss_changes":[2.5129917E-1,2.5994766E-1,5.3244054E-2,2.697509E-1,7.4084103E-3,4.39757E-2,0E0,2.6421282E-1,2.7407795E-2,7.3086172E-3,0E0,1.3709843E-2,0E0,2.9278922E-1,2.0238206E-2,1.1325285E-2,0E0,0E0,6.784608E-2,7.251434E-3,0E0,3.604219E-1,1.4067936E-1,6.6037476E-3,0E0,2.6020903E-2,0E0,0E0,0E0,0E0,0E0,0E0,0E0,0E0,0E0,0E0,0E0,0E0,0E0],"parents":[2147483647,0,0,1,1,2,2,3,3,4,4,5,5,7,7,8,8,9,9,11,11,13,13,14,14,15,15,18,18,19,19,21,21,22,22,23,23,25,25],"right_children":[2,4,6,8,10,12,-1,14,16,18,-1,20,-1,22,24,26,-1,-1,28,30,-1,32,34,36,-1,38,-1,-1,-1,-1,-1,-1,-1,-1,-1,-1,-1,-1,-1],"split_conditions":[5E-1,5E-1,4.65E1,5E-1,5E-1,5E-1,-6.9070265E-2,5E-1,5E-1,5E-1,-6.3800905E-3,5E-1,2.274989E-2,5E-1,5E-1,4.65E1,5.1499577E-3,-4.6378493E-2,4.65E1,5E-1,1.261653E-3,4.65E1,5E-1,5E-1,3.0225457E-3,5E-1,-5.902834E-2,2.8708363E-2,-5.0433785E-2,-4.0345173E-2,-5.537465E-3,7.4523216E-4,2.9200397E-2,5.2689932E-2,-3.7337396E-2,-4.1713342E-2,-6.9913124E-3,-3.4541745E-2,9.945899E-3],"split_indices":[16,17,1,15,7,6,0,11,10,5,0,10,0,9,10,1,0,0,1,9,0,1,13,7,0,6,0,0,0,0,0,0,0,0,0,0,0,0,0],"split_type":[0,0,0,0,0,0,0,0,0,0,0,0,0,0,0,0,0,0,0,0,0,0,0,0,0,0,0,0,0,0,0,0,0,0,0,0,0,0,0],"sum_hessian":[2.51E2,2.41E2,1E1,2.31E2,1E1,7E0,3E0,2.21E2,1E1,9E0,1E0,6E0,1E0,2.11E2,1E1,9E0,1E0,7E0,2E0,5E0,1E0,1.91E2,2E1,9E0,1E0,6E0,3E0,1E0,1E0,4E0,1E0,1.35E2,5.6E1,1.9E1,1E0,8E0,1E0,5E0,1E0],"tree_param":{"num_deleted":"0","num_feature":"35","num_nodes":"39","size_leaf_vector":"0"}},{"base_weights":[9.031285E-3,1.2572259E-1,1.1152844E-3,4.478716E-2,6.6987693E-1,1.6582143E-2,-1.3070697E-1,-1.3299389E-2,4.2899942E-1,6.105198E-3,2.2865361E-1,-1.5240464E-1,1.9501865E-1,-5.3802866E-2,2.566229E-1,1.609349E-2,-1.8927704E-1,1.0415342E-1,3.8936552E-1,-1.6988295E-1,1.2479833E-1,-9.689193E-2,2.3163295E-1,6.265901E-3,1.9727732E-1,-2.4893208E-1,1.7380911E-1,2.1681696E-2,2.9949188E-1,5.006437E-1,2.7765512E-2,-1.8835804E-1,1.18284464E-1,-1.3881524E-1,1.8213224E-1,-4.399277E-3,1.9441296E-1,6.25699E-3,6.409058E-1,-3.1348154E-1,1.3373184E-1,6.661184E-2,-1.0148451E-1,-2.0092908E-1,3.7816823E-2],"categories":[],"categories_nodes":[],"categories_segments":[],"categories_sizes":[],"default_left":[1,1,1,1,0,1,1,1,0,1,1,1,0,1,0,1,1,1,1,1,0,1,0,1,1,1,0,1,0,0,0,1,0,0,0,0,0,0,0,0,0,0,0,0,0],"id":16,"left_children":[1,3,5,7,-1,9,11,13,-1,15,17,19,-1,21,-1,23,25,27,29,31,-1,33,-1,35,37,39,-1,41,-1,-1,-1,43,-1,-1,-1,-1,-1,-1,-1,-1,-1,-1,-1,-1,-1],"loss_changes":[2.3263931E-1,6.7465997E-1,4.8538098E-1,3.404689E-1,0E0,4.718604E-1,2.0640895E-1,1.6686614E-1,0E0,4.011593E-1,1.595329E-1,1.3748217E-1,0E0,1.8233249E-1,0E0,3.4598097E-1,2.5986585E-1,1.0627581E-1,1.4705211E-1,1.4472997E-1,0E0,1.6565412E-1,0E0,3.7408695E-1,8.434104E-1,2.6422918E-1,0E0,3.996332E-2,0E0,0E0,0E0,7.015002E-2,0E0,0E0,0E0,0E0,0E0,0E0,0E0,0E0,0E0,0E0,0E0,0E0,0E0],"parents":[2147483647,0,0,1,1,2,2,3,3,5,5,6,6,7,7,9,9,10,10,11,11,13,13,15,15,16,16,17,17,18,18,19,19,21,21,23,23,24,24,25,25,27,27,31,31],"right_children":[2,4,6,8,-1,10,12,14,-1,16,18,20,-1,22,-1,24,26,28,30,32,-1,34,-1,36,38,40,-1,42,-1,-1,-1,44,-1,-1,-1,-1,-1,-1,-1,-1,-1,-1,-1,-1,-1],"split_conditions":[4.55E1,5E-1,5E-1,5E-1,2.009631E-1,5E-1,5E-1,5E-1,1.2869984E-1,5E-1,4.65E1,5E-1,5.85056E-2,5E-1,7.698688E-2,5E-1,5E-1,5E-1,5E-1,5E-1,3.74395E-2,5E-1,6.948989E-2,5E-1,5E-1,5E-1,5.2142736E-2,5E-1,8.9847565E-2,1.5019311E-1,8.329654E-3,5E-1,3.5485342E-2,-4.1644573E-2,5.4639675E-2,-1.319783E-3,5.832389E-2,1.8770971E-3,1.9227175E-1,-9.404447E-2,4.0119555E-2,1.9983552E-2,-3.0445354E-2,-6.0278725E-2,1.13450475E-2],"split_indices":[1,26,10,27,0,22,33,28,0,27,1,13,0,31,0,24,8,9,6,20,0,32,0,21,4,9,0,5,0,0,0,19,0,0,0,0,0,0,0,0,0,0,0,0,0],"split_type":[0,0,0,0,0,0,0,0,0,0,0,0,0,0,0,0,0,0,0,0,0,0,0,0,0,0,0,0,0,0,0,0,0,0,0,0,0,0,0,0,0,0,0,0,0],"sum_hessian":[2.51E2,1.5E1,2.36E2,1.4E1,1E0,2.12E2,2.4E1,1.3E1,1E0,2.03E2,9E0,2.3E1,1E0,1.2E1,1E0,1.94E2,9E0,6E0,3E0,2.2E1,1E0,1.1E1,1E0,1.85E2,9E0,8E0,1E0,5E0,1E0,2E0,1E0,2.1E1,1E0,1E1,1E0,1.76E2,9E0,7E0,2E0,7E0,1E0,4E0,1E0,2E1,1E0],"tree_param":{"num_deleted":"0","num_feature":"35","num_nodes":"45","size_leaf_vector":"0"}},{"base_weights":[1.052393E-2,4.1508917E-3,1.376388E-1,-2.4774664E-3,1.4296906E-1,1.7298983E-1,-2.6077589E-2,-9.93449E-3,1.3444108E-1,8.864796E-2,2.58276E-1,2.1025506E-1,1.5952637E-2,-4.84761E-2,9.359717E-3,-1.7994627E-2,1.3127413E-1,-1.2949824E-3,5.4208094E-1,1.0821436E-1,1.3443708E-2,2.2506714E-2,3.6490726E-1,2.4792288E-1,6.483439E-2,1.5589249E-1,-1.3196354E-1,1.5603128E-1,-2.9387228E-2,-2.0671666E-1,1.8079299E-1,-5.560474E-2,1.439627E-1,6.8612134E-1,1.2700003E-1,1.15817465E-1,3.1297863E-2,3.0209646E-1,-1.1472523E-2,-1.7997688E-1,2.7722847E-1,7.4134655E-2,5.693954E-1,-3.836519E-2,1.2590964E-1,2.1461885E-1,6.794304E-2,-1.072002E-1,1.5278172E-1,1.2612323E-1,3.2144308E-2,3.5241777E-1,5.040562E-2],"categories":[],"categories_nodes":[],"categories_segments":[],"categories_sizes":[],"default_left":[1,1,1,1,1,1,1,1,1,1,1,1,1,0,0,1,1,1,1,1,0,0,0,1,1,0,0,1,1,0,1,1,0,0,0,1,0,1,0,0,0,0,0,0,0,0,0,0,0,0,0,0,0],"id":17,"left_children":[1,3,5,7,9,11,13,15,17,19,21,23,25,-1,-1,27,29,31,33,35,-1,-1,-1,37,39,-1,-1,41,43,-1,45,47,-1,-1,-1,49,-1,51,-1,-1,-1,-1,-1,-1,-1,-1,-1,-1,-1,-1,-1,-1,-1],"loss_changes":[2.0357588E-1,2.221071E-1,7.396169E-2,2.3718768E-1,4.6003938E-2,5.5166125E-2,2.8349513E-3,2.5275767E-1,6.6467905E-1,1.1788487E-2,6.7208275E-2,2.7747512E-2,8.267023E-2,0E0,0E0,4.1895032E-1,2.3821594E-1,8.68941E-2,9.2227876E-2,4.6879798E-4,0E0,0E0,0E0,8.778009E-2,2.0588413E-1,0E0,0E0,3.9787874E-1,2.7949762E-1,0E0,2.7407825E-2,1.023926E-1,0E0,0E0,0E0,1.1197478E-3,0E0,4.556319E-2,0E0,0E0,0E0,0E0,0E0,0E0,0E0,0E0,0E0,0E0,0E0,0E0,0E0,0E0,0E0],"parents":[2147483647,0,0,1,1,2,2,3,3,4,4,5,5,6,6,7,7,8,8,9,9,10,10,11,11,12,12,15,15,16,16,17,17,18,18,19,19,23,23,24,24,27,27,28,28,30,30,31,31,35,35,37,37],"right_children":[2,4,6,8,10,12,14,16,18,20,22,24,26,-1,-1,28,30,32,34,36,-1,-1,-1,38,40,-1,-1,42,44,-1,46,48,-1,-1,-1,50,-1,52,-1,-1,-1,-1,-1,-1,-1,-1,-1,-1,-1,-1,-1,-1,-1],"split_conditions":[5E-1,5E-1,5E-1,5E-1,5E-1,5E-1,4.65E1,5E-1,5E-1,5E-1,4.65E1,5E-1,4.55E1,-1.454283E-2,2.8079152E-3,4.55E1,4.55E1,5E-1,4.65E1,5E-1,4.033113E-3,6.7520146E-3,1.09472185E-1,4.65E1,4.65E1,4.676775E-2,-3.9589062E-2,5E-1,5E-1,-6.2015E-2,4.65E1,5E-1,4.318881E-2,2.0583642E-1,3.810001E-2,5E-1,9.3893595E-3,5E-1,-3.441757E-3,-5.3993065E-2,8.3168544E-2,2.2240397E-2,1.7081863E-1,-1.1509557E-2,3.7772894E-2,6.438566E-2,2.0382911E-2,-3.2160062E-2,4.583452E-2,3.7836973E-2,9.643293E-3,1.0572533E-1,1.5121687E-2],"split_indices":[29,19,6,23,4,10,1,20,4,6,1,4,1,0,0,1,1,6,1,7,0,0,0,1,1,0,0,26,22,0,1,7,0,0,0,10,0,8,0,0,0,0,0,0,0,0,0,0,0,0,0,0,0],"split_type":[0,0,0,0,0,0,0,0,0,0,0,0,0,0,0,0,0,0,0,0,0,0,0,0,0,0,0,0,0,0,0,0,0,0,0,0,0,0,0,0,0,0,0,0,0,0,0,0,0,0,0,0,0],"sum_hessian":[2.51E2,2.4E2,1.1E1,2.3E2,1E1,9E0,2E0,2.19E2,1.1E1,8E0,2E0,7E0,2E0,1E0,1E0,2.08E2,1.1E1,9E0,2E0,6E0,2E0,1E0,1E0,5E0,2E0,1E0,1E0,1.2E1,1.96E2,1E0,1E1,7E0,2E0,1E0,1E0,5E0,1E0,4E0,1E0,1E0,1E0,1.1E1,1E0,1.86E2,1E1,7E0,3E0,6E0,1E0,4E0,1E0,3E0,1E0],"tree_param":{"num_deleted":"0","num_feature":"35","num_nodes":"53","size_leaf_vector":"0"}},{"base_weights":[1.0787494E-2,1.6188398E-2,-1.0901309E-1,2.9228529E-2,-3.8536157E-2,-1.2084193E-1,4.6376437E-3,2.1041973E-2,1.793943E-1,-1.7987067E-2,-3.3392712E-1,-1.3108572E-1,-1.4323875E-2,1.2053703E-2,1.7892897E-1,3.0595985E-1,-2.179119E-1,-9.398945E-4,-2.563342E-1,1.2843633E-1,2.1057609E-3,5.08729E-2,4.6076882E-1,1.4774762E-1,5.2039766E-1,1.2776834E-2,-1.8808855E-1,6.385664E-2,4.8398614E-1,-1.0131506E-2,8.210852E-2,1.0592723E-1,-7.619339E-2,5.832032E-1,1.0795003E-1,4.4058193E-2,3.330974E-1,6.2549645E-1,1.5510005E-1,2.706935E-2,-1.7728482E-1],"categories":[],"categories_nodes":[],"categories_segments":[],"categories_sizes":[],"default_left":[1,1,1,1,1,1,0,1,1,1,0,0,0,1,1,1,0,1,0,1,1,1,1,1,1,1,0,0,0,0,0,0,0,0,0,0,0,0,0,0,0],"id":18,"left_children":[1,3,5,7,9,11,-1,13,15,17,-1,-1,-1,19,21,23,-1,25,-1,27,29,31,33,35,37,39,-1,-1,-1,-1,-1,-1,-1,-1,-1,-1,-1,-1,-1,-1,-1],"loss_changes":[1.6481669E-1,1.7382129E-1,1.5348345E-2,2.37176E-1,2.7928436E-1,9.033844E-3,0E0,2.6322067E-1,5.69525E-1,1.8260056E-1,0E0,0E0,0E0,2.0581217E-1,3.3747238E-1,1.945259E-1,0E0,1.12787075E-1,0E0,2.905524E-1,1.6236937E-1,6.4035356E-2,6.6634655E-2,1.006372E-1,1.8162489E-2,1.1617381E-1,0E0,0E0,0E0,0E0,0E0,0E0,0E0,0E0,0E0,0E0,0E0,0E0,0E0,0E0,0E0],"parents":[2147483647,0,0,1,1,2,2,3,3,4,4,5,5,7,7,8,8,9,9,13,13,14,14,15,15,17,17,19,19,20,20,21,21,22,22,23,23,24,24,25,25],"right_children":[2,4,6,8,10,12,-1,14,16,18,-1,-1,-1,20,22,24,-1,26,-1,28,30,32,34,36,38,40,-1,-1,-1,-1,-1,-1,-1,-1,-1,-1,-1,-1,-1,-1,-1],"split_conditions":[5E-1,5E-1,5E-1,5E-1,5E-1,5E-1,1.3912931E-3,5E-1,5E-1,5E-1,-1.00178145E-1,-3.9325718E-2,-4.297163E-3,4.55E1,5E-1,5E-1,-6.537357E-2,5E-1,-7.690026E-2,5E-1,5E-1,5E-1,4.65E1,4.65E1,4.65E1,5E-1,-5.6426566E-2,1.9156992E-2,1.4519584E-1,-3.039452E-3,2.4632556E-2,3.177817E-2,-2.2858018E-2,1.7496097E-1,3.238501E-2,1.32174585E-2,9.992922E-2,1.8764894E-1,4.6530016E-2,8.120806E-3,-5.3185448E-2],"split_indices":[12,5,10,24,26,7,0,23,10,24,0,0,0,1,4,4,0,27,0,26,9,10,1,1,1,33,0,0,0,0,0,0,0,0,0,0,0,0,0,0,0],"split_type":[0,0,0,0,0,0,0,0,0,0,0,0,0,0,0,0,0,0,0,0,0,0,0,0,0,0,0,0,0,0,0,0,0,0,0,0,0,0,0,0,0],"sum_hessian":[2.51E2,2.41E2,1E1,1.95E2,4.6E1,9E0,1E0,1.86E2,9E0,4.4E1,2E0,8E0,1E0,1.77E2,9E0,7E0,2E0,4.2E1,2E0,1.3E1,1.64E2,7E0,2E0,5E0,2E0,4E1,2E0,1.2E1,1E0,1.43E2,2.1E1,5E0,2E0,1E0,1E0,4E0,1E0,1E0,1E0,3.8E1,2E0],"tree_param":{"num_deleted":"0","num_feature":"35","num_nodes":"41","size_leaf_vector":"0"}},{"base_weights":[8.993168E-3,1.4309719E-2,-1.08788505E-1,2.0068133E-2,-1.08441375E-1,-1.2271664E-1,1.5246451E-2,2.6337327E-2,-1.0827995E-1,-1.4195614E-1,1.1335307E-1,-1.4892392E-1,-1.1925022E-2,3.207222E-2,-8.6584E-2,-1.3749199E-1,9.19202E-2,-1.6962135E-1,5.3515404E-2,-1.6077209E-1,-3.2993376E-2,-1.6118675E-2,-1.7688572E-3,3.813382E-2,-8.215643E-2,-3.4393024E-2,-1.6931996E-1,-1.6366583E-1,4.903634E-2,-1.9407336E-1,-5.602619E-2,4.471179E-2,-8.01484E-2,-4.6084724E-2,-1.3376074E-1,-5.998986E-2,7.2392404E-2,-1.8797833E-1,-5.2381396E-2,-2.1004431E-1,-4.9123824E-2,8.178565E-2,-1.6582493E-1],"categories":[],"categories_nodes":[],"categories_segments":[],"categories_sizes":[],"default_left":[1,1,1,1,1,1,0,1,1,1,0,1,1,1,1,1,0,1,0,0,0,0,0,1,1,1,0,1,0,1,1,0,0,0,0,0,0,0,0,0,0,0,0],"id":19,"left_children":[1,3,5,7,9,11,-1,13,15,17,-1,19,21,23,25,27,-1,29,-1,-1,-1,-1,-1,31,33,35,-1,37,-1,39,41,-1,-1,-1,-1,-1,-1,-1,-1,-1,-1,-1,-1],"loss_changes":[1.5935718E-1,1.7323434E-1,2.0874321E-2,1.89528E-1,9.785843E-2,2.7259558E-2,0E0,1.4654233E-1,7.696909E-2,6.3154966E-2,0E0,5.6840777E-3,9.926272E-5,1.4992347E-1,4.167536E-2,5.6847215E-2,0E0,1.4125466E-2,0E0,0E0,0E0,0E0,0E0,1.607511E-1,1.4311679E-2,2.6209757E-2,0E0,1.45038515E-2,0E0,5.8867037E-3,5.8956794E-2,0E0,0E0,0E0,0E0,0E0,0E0,0E0,0E0,0E0,0E0,0E0,0E0],"parents":[2147483647,0,0,1,1,2,2,3,3,4,4,5,5,7,7,8,8,9,9,11,11,12,12,13,13,14,14,15,15,17,17,23,23,24,24,25,25,27,27,29,29,30,30],"right_children":[2,4,6,8,10,12,-1,14,16,18,-1,20,22,24,26,28,-1,30,-1,-1,-1,-1,-1,32,34,36,-1,38,-1,40,42,-1,-1,-1,-1,-1,-1,-1,-1,-1,-1,-1,-1],"split_conditions":[5E-1,5E-1,5E-1,5E-1,5E-1,5E-1,4.5739356E-3,5E-1,5E-1,5E-1,3.4005925E-2,5E-1,4.65E1,5E-1,4.65E1,5E-1,2.7576061E-2,5E-1,1.6054623E-2,-4.8231628E-2,-9.898013E-3,-4.835603E-3,-5.306572E-4,5E-1,4.65E1,5E-1,-5.079599E-2,5E-1,1.4710902E-2,5E-1,4.65E1,1.3413538E-2,-2.4044521E-2,-1.38254175E-2,-4.0128224E-2,-1.7996958E-2,2.1717722E-2,-5.63935E-2,-1.571442E-2,-6.301329E-2,-1.4737148E-2,2.4535695E-2,-4.9747482E-2],"split_indices":[34,13,6,14,10,5,0,16,7,8,0,7,1,17,1,10,0,5,0,0,0,0,0,12,1,6,0,6,0,7,1,0,0,0,0,0,0,0,0,0,0,0,0],"split_type":[0,0,0,0,0,0,0,0,0,0,0,0,0,0,0,0,0,0,0,0,0,0,0,0,0,0,0,0,0,0,0,0,0,0,0,0,0,0,0,0,0,0,0],"sum_hessian":[2.51E2,2.41E2,1E1,2.31E2,1E1,9E0,1E0,2.21E2,1E1,9E0,1E0,7E0,2E0,2.11E2,1E1,9E0,1E0,8E0,1E0,6E0,1E0,1E0,1E0,2.01E2,1E1,7E0,3E0,8E0,1E0,6E0,2E0,1.91E2,1E1,7E0,3E0,6E0,1E0,6E0,2E0,5E0,1E0,1E0,1E0],"tree_param":{"num_deleted":"0","num_feature":"35","num_nodes":"43","size_leaf_vector":"0"}},{"base_weights":[5.2900473E-3,1.5574268E-2,-3.763385E-2,9.026464E-3,1.4169902E-1,-2.1612905E-2,-2.7608407E-1,2.2156655E-3,1.3480467E-1,2.4585074E-1,-1.8327188E-1,-8.306163E-3,-2.1400972E-1,9.359273E-2,-5.191818E-3,2.4989165E-2,3.8271114E-1,1.1110315E-1,4.3339565E-1,2.4293542E-3,-1.594132E-1,-2.6056552E-1,-6.0449064E-2,3.853349E-2,4.0468144E-1,-1.1392674E-2,1.09067425E-1,6.826743E-2,-6.989708E-2,4.8901594E-1,8.505076E-2,2.2753369E-2,2.7642602E-1,5.249652E-1,1.2512827E-1,1.3579826E-2,-1.507702E-1,-1.4462744E-2,3.3724415E-1,-2.7797913E-2,4.232163E-2,1.2621441E-1,3.270197E-2,1.1927216E-1,-9.337813E-2,6.0369372E-3,-1.1088255E-1,-8.121307E-2,2.1930957E-1,2.4590423E-2,-1.3408457E-1],"categories":[],"categories_nodes":[],"categories_segments":[],"categories_sizes":[],"default_left":[1,1,1,1,1,1,0,1,1,1,0,1,1,1,1,1,1,1,1,1,0,0,0,1,0,1,1,1,1,0,0,1,0,0,0,1,0,0,0,0,0,0,0,0,0,0,0,0,0,0,0],"id":20,"left_children":[1,3,5,7,9,11,-1,13,15,17,-1,19,21,23,25,27,29,31,33,35,-1,-1,-1,37,-1,39,41,43,45,-1,-1,47,-1,-1,-1,49,-1,-1,-1,-1,-1,-1,-1,-1,-1,-1,-1,-1,-1,-1,-1],"loss_changes":[1.11828715E-1,1.6719237E-1,1.8122277E-1,1.6674809E-1,3.8352028E-1,1.1855062E-1,0E0,1.263845E-1,2.626761E-1,1.5401822E-1,0E0,7.338682E-2,5.6964755E-3,2.2420253E-1,1.2381397E-1,3.7623785E-2,5.3337038E-2,8.1347816E-2,1.8995762E-2,7.550207E-2,0E0,0E0,0E0,2.1067451E-1,0E0,1.465738E-1,7.657483E-3,6.060554E-2,1.0005965E-2,0E0,0E0,1.1998705E-1,0E0,0E0,0E0,6.9958E-2,0E0,0E0,0E0,0E0,0E0,0E0,0E0,0E0,0E0,0E0,0E0,0E0,0E0,0E0,0E0],"parents":[2147483647,0,0,1,1,2,2,3,3,4,4,5,5,7,7,8,8,9,9,11,11,12,12,13,13,14,14,15,15,16,16,17,17,18,18,19,19,23,23,25,25,26,26,27,27,28,28,31,31,35,35],"right_children":[2,4,6,8,10,12,-1,14,16,18,-1,20,22,24,26,28,30,32,34,36,-1,-1,-1,38,-1,40,42,44,46,-1,-1,48,-1,-1,-1,50,-1,-1,-1,-1,-1,-1,-1,-1,-1,-1,-1,-1,-1,-1,-1],"split_conditions":[5E-1,5E-1,5E-1,5E-1,5E-1,5E-1,-8.282522E-2,4.55E1,5E-1,5E-1,-5.4981567E-2,5E-1,4.65E1,5E-1,5E-1,5E-1,4.65E1,4.65E1,4.65E1,5E-1,-4.782396E-2,-7.816966E-2,-1.813472E-2,5E-1,1.2140444E-1,4.65E1,4.65E1,5E-1,4.55E1,1.467048E-1,2.551523E-2,5E-1,8.292781E-2,1.5748957E-1,3.7538484E-2,5E-1,-4.5231063E-2,-4.3388233E-3,1.0117325E-1,-8.339374E-3,1.269649E-2,3.7864327E-2,9.810591E-3,3.5781648E-2,-2.801344E-2,1.8110812E-3,-3.3264767E-2,-2.4363922E-2,6.579287E-2,7.377127E-3,-4.022537E-2],"split_indices":[5,24,26,23,10,24,0,1,4,4,0,27,1,26,20,10,1,1,1,33,0,0,0,27,0,1,1,9,1,0,0,8,0,0,0,23,0,0,0,0,0,0,0,0,0,0,0,0,0,0,0],"split_type":[0,0,0,0,0,0,0,0,0,0,0,0,0,0,0,0,0,0,0,0,0,0,0,0,0,0,0,0,0,0,0,0,0,0,0,0,0,0,0,0,0,0,0,0,0,0,0,0,0,0,0],"sum_hessian":[2.51E2,2.03E2,4.8E1,1.94E2,9E0,4.6E1,2E0,1.85E2,9E0,7E0,2E0,4.4E1,2E0,1.3E1,1.72E2,7E0,2E0,5E0,2E0,4.2E1,2E0,1E0,1E0,1.2E1,1E0,1.64E2,8E0,5E0,2E0,1E0,1E0,4E0,1E0,1E0,1E0,4E1,2E0,1.1E1,1E0,1.26E2,3.8E1,6E0,2E0,4E0,1E0,1E0,1E0,3E0,1E0,3.8E1,2E0],"tree_param":{"num_deleted":"0","num_feature":"35","num_nodes":"51","size_leaf_vector":"0"}},{"base_weights":[5.2037323E-3,6.23966E-4,1.0548553E-1,-4.237692E-3,1.03104025E-1,1.1634209E-1,-1.5400648E-3,-9.544161E-3,9.384292E-2,5.5627305E-2,2.1116619E-1,1.3442063E-1,2.935195E-2,-1.5079471E-2,9.750079E-2,5.627292E-2,2.535565E-1,7.0498005E-2,2.38657E-3,1.8113375E-2,2.986359E-1,1.546281E-1,4.9198825E-2,1.2957644E-1,-8.554852E-2,-2.0988733E-2,9.426971E-2,1.3716018E-1,-5.397765E-2,2.6634935E-2,1.763264E-1,7.743287E-2,1.4444411E-2,1.149714E-2,-7.917285E-3,2.8515482E-2,3.925956E-1,-1.9190466E-1,2.657029E-1,-2.777183E-2,8.815938E-2,1.2586087E-1,-3.192703E-2,4.8308842E-2,4.2398548E-1,1.573379E-1,-2.3830438E-1,-1.8042117E-2,9.816104E-2,8.452237E-2,2.0992696E-2,8.794403E-2,-1.0459936E-1],"categories":[],"categories_nodes":[],"categories_segments":[],"categories_sizes":[],"default_left":[1,1,1,1,1,1,0,1,1,1,1,1,1,1,1,1,0,1,1,0,0,1,1,0,0,1,1,1,1,1,0,1,0,0,0,1,0,0,0,0,0,0,0,0,0,0,0,0,0,0,0,0,0],"id":21,"left_children":[1,3,5,7,9,11,-1,13,15,17,19,21,23,25,27,29,-1,31,33,-1,-1,35,37,-1,-1,39,41,43,45,47,-1,49,-1,-1,-1,51,-1,-1,-1,-1,-1,-1,-1,-1,-1,-1,-1,-1,-1,-1,-1,-1,-1],"loss_changes":[1.1566951E-1,1.2100688E-1,1.2960397E-2,1.2164278E-1,4.4688188E-2,1.1781037E-2,0E0,1.3241872E-1,5.773692E-2,6.9572944E-3,4.524952E-2,6.1694235E-3,4.5632597E-2,1.3832107E-1,7.3486544E-2,3.4443133E-2,0E0,1.6025938E-3,3.7264812E-4,0E0,0E0,1.6886915E-1,2.075893E-1,0E0,0E0,1.5126115E-1,4.7872096E-2,2.088811E-1,1.5434763E-1,3.372679E-2,0E0,6.264411E-4,0E0,0E0,0E0,4.8753E-2,0E0,0E0,0E0,0E0,0E0,0E0,0E0,0E0,0E0,0E0,0E0,0E0,0E0,0E0,0E0,0E0,0E0],"parents":[2147483647,0,0,1,1,2,2,3,3,4,4,5,5,7,7,8,8,9,9,10,10,11,11,12,12,13,13,14,14,15,15,17,17,18,18,21,21,22,22,25,25,26,26,27,27,28,28,29,29,31,31,35,35],"right_children":[2,4,6,8,10,12,-1,14,16,18,20,22,24,26,28,30,-1,32,34,-1,-1,36,38,-1,-1,40,42,44,46,48,-1,50,-1,-1,-1,52,-1,-1,-1,-1,-1,-1,-1,-1,-1,-1,-1,-1,-1,-1,-1,-1,-1],"split_conditions":[5E-1,5E-1,5E-1,5E-1,5E-1,5E-1,-4.6201947E-4,5E-1,5E-1,5E-1,4.65E1,4.65E1,4.55E1,5E-1,4.65E1,5E-1,7.606695E-2,5E-1,4.65E1,5.4340125E-3,8.959077E-2,5E-1,5E-1,3.8872935E-2,-2.5664557E-2,5E-1,5E-1,5E-1,5E-1,4.65E1,5.289792E-2,4.65E1,4.3333233E-3,3.4491422E-3,-2.3751855E-3,5E-1,1.1777868E-1,-5.75714E-2,7.971087E-2,-8.331549E-3,2.6447816E-2,3.775826E-2,-9.57811E-3,1.4492653E-2,1.2719566E-1,4.7201373E-2,-7.1491316E-2,-5.4126354E-3,2.9448314E-2,2.5356712E-2,6.297809E-3,2.638321E-2,-3.1379808E-2],"split_indices":[32,19,9,29,4,10,0,31,9,6,1,1,1,18,1,7,0,8,1,0,0,5,4,0,0,30,4,4,4,1,0,1,0,0,0,4,0,0,0,0,0,0,0,0,0,0,0,0,0,0,0,0,0],"split_type":[0,0,0,0,0,0,0,0,0,0,0,0,0,0,0,0,0,0,0,0,0,0,0,0,0,0,0,0,0,0,0,0,0,0,0,0,0,0,0,0,0,0,0,0,0,0,0,0,0,0,0,0,0],"sum_hessian":[2.51E2,2.41E2,1E1,2.31E2,1E1,9E0,1E0,2.2E2,1.1E1,8E0,2E0,7E0,2E0,2.1E2,1E1,1E1,1E0,6E0,2E0,1E0,1E0,5E0,2E0,1E0,1E0,2E2,1E1,8E0,2E0,9E0,1E0,5E0,1E0,1E0,1E0,4E0,1E0,1E0,1E0,1.89E2,1.1E1,8E0,2E0,7E0,1E0,1E0,1E0,6E0,3E0,4E0,1E0,3E0,1E0],"tree_param":{"num_deleted":"0","num_feature":"35","num_nodes":"53","size_leaf_vector":"0"}},{"base_weights":[6.0094665E-3,1.0042169E-2,-8.32563E-2,1.39813125E-2,-7.395088E-2,-1.0230874E-1,5.36341E-2,2.3394985E-2,-2.5657615E-2,-9.086725E-2,4.7606423E-2,-5.7365417E-2,-1.5538238E-1,9.246736E-3,7.38961E-2,-1.1829163E-2,-2.1531288E-1,-9.868681E-2,-1.0245621E-2,-7.950736E-2,3.774312E-2,1.7886523E-2,-1.4418536E-1,4.9199037E-2,3.7032592E-1,4.9774896E-4,-1.763539E-1,-1.06512696E-1,-1.8039852E-2,-1.0754659E-1,3.0344397E-2,6.1801835E-3,8.092626E-2,-2.3889753E-1,2.5939995E-1,2.306938E-2,3.5506514E-1,9.906059E-3,-1.219762E-1,-2.1731491E-1,-4.721594E-2,-1.2192715E-1,-4.017956E-2,-1.3220172E-1,-4.463047E-3],"categories":[],"categories_nodes":[],"categories_segments":[],"categories_sizes":[],"default_left":[1,1,1,1,1,1,0,1,1,1,0,1,0,1,1,1,0,1,0,1,0,1,1,1,0,1,1,1,0,1,0,0,0,0,0,0,0,0,0,0,0,0,0,0,0],"id":22,"left_children":[1,3,5,7,9,11,-1,13,15,17,-1,19,-1,21,23,25,-1,27,-1,29,-1,31,33,35,-1,37,39,41,-1,43,-1,-1,-1,-1,-1,-1,-1,-1,-1,-1,-1,-1,-1,-1,-1],"loss_changes":[9.1551594E-2,8.110222E-2,3.4176297E-2,8.717057E-2,2.6945252E-2,1.4939494E-2,0E0,1.3364315E-1,1.1547178E-1,5.293146E-3,0E0,1.7742071E-2,0E0,1.9877082E-1,2.8193915E-1,8.7295294E-2,0E0,3.758736E-3,0E0,2.174439E-2,0E0,1.0355286E-1,3.6776555E-1,3.0350375E-1,0E0,4.8451487E-2,5.6081414E-3,3.2809302E-3,0E0,1.2117669E-2,0E0,0E0,0E0,0E0,0E0,0E0,0E0,0E0,0E0,0E0,0E0,0E0,0E0,0E0,0E0],"parents":[2147483647,0,0,1,1,2,2,3,3,4,4,5,5,7,7,8,8,9,9,11,11,13,13,14,14,15,15,17,17,19,19,21,21,22,22,23,23,25,25,26,26,27,27,29,29],"right_children":[2,4,6,8,10,12,-1,14,16,18,-1,20,-1,22,24,26,-1,28,-1,30,-1,32,34,36,-1,38,40,42,-1,44,-1,-1,-1,-1,-1,-1,-1,-1,-1,-1,-1,-1,-1,-1,-1],"split_conditions":[5E-1,5E-1,5E-1,5E-1,5E-1,4.65E1,1.6090231E-2,4.65E1,5E-1,5E-1,1.4281928E-2,5E-1,-4.6614714E-2,5E-1,5E-1,5E-1,-6.459387E-2,5E-1,-3.0736865E-3,5E-1,1.1322937E-2,5E-1,5E-1,5E-1,1.1109778E-1,5E-1,4.65E1,5E-1,-5.411956E-3,5E-1,9.10332E-3,1.8540551E-3,2.4277879E-2,-7.1669266E-2,7.781999E-2,6.920814E-3,1.0651954E-1,2.971818E-3,-3.659286E-2,-6.519448E-2,-1.4164782E-2,-3.6578145E-2,-1.2053869E-2,-3.9660517E-2,-1.338914E-3],"split_indices":[15,11,10,5,10,1,0,1,26,7,0,6,0,25,25,24,0,8,0,4,0,9,8,21,0,27,1,5,0,7,0,0,0,0,0,0,0,0,0,0,0,0,0,0,0],"split_type":[0,0,0,0,0,0,0,0,0,0,0,0,0,0,0,0,0,0,0,0,0,0,0,0,0,0,0,0,0,0,0,0,0,0,0,0,0,0,0,0,0,0,0,0,0],"sum_hessian":[2.51E2,2.41E2,1E1,2.31E2,1E1,9E0,1E0,1.87E2,4.4E1,9E0,1E0,6E0,3E0,1.47E2,4E1,4.2E1,2E0,8E0,1E0,5E0,1E0,1.4E2,7E0,3.8E1,2E0,4E1,2E0,7E0,1E0,4E0,1E0,1.19E2,2.1E1,6E0,1E0,3.6E1,2E0,3.8E1,2E0,1E0,1E0,5E0,2E0,3E0,1E0],"tree_param":{"num_deleted":"0","num_feature":"35","num_nodes":"45","size_leaf_vector":"0"}},{"base_weights":[4.1483487E-3,7.824022E-3,-7.70936E-2,1.1758768E-2,-7.587461E-2,-1.0555466E-1,1.03758514E-1,8.6174704E-2,6.584466E-3,-4.5730967E-2,-1.4101401E-1,-1.2903774E-1,5.28965E-2,1.1898522E-1,-1.8658626E-1,1.809255E-2,-9.1770716E-2,-1.24287635E-1,-2.0375429E-2,-2.3928344E-2,-1.8759267E-1,-8.454337E-2,-1.8984534E-1,1.5620147E-1,-1.8241295E-1,2.4644105E-2,-1.0623076E-1,-1.1173684E-1,1.73742E-1,-4.4204783E-2,7.321503E-2,1.886773E-1,-1.16754234E-1,3.1636305E-2,-1.0228147E-1,-1.7378595E-1,2.5088298E-1,-1.22523874E-1,5.739546E-2,-5.8361545E-2,2.036789E-2],"categories":[],"categories_nodes":[],"categories_segments":[],"categories_sizes":[],"default_left":[1,1,1,1,1,1,0,1,1,1,1,1,0,1,0,1,1,0,1,0,0,0,0,1,0,1,1,1,0,1,0,0,0,0,0,0,0,0,0,0,0],"id":23,"left_children":[1,3,5,7,9,11,-1,13,15,17,19,21,-1,23,-1,25,27,-1,29,-1,-1,-1,-1,31,-1,33,35,37,-1,39,-1,-1,-1,-1,-1,-1,-1,-1,-1,-1,-1],"loss_changes":[7.585514E-2,8.059074E-2,6.757188E-2,8.876431E-2,1.5150219E-2,4.4034846E-2,0E0,1.5644245E-1,2.4841018E-1,1.5394207E-2,1.1872303E-2,8.3002E-3,0E0,1.8552987E-1,0E0,1.622621E-1,1.4134233E-1,0E0,2.1078058E-2,0E0,0E0,0E0,0E0,1.3726687E-1,0E0,1.6919626E-1,2.8484878E-1,4.7169924E-2,0E0,7.5876806E-3,0E0,0E0,0E0,0E0,0E0,0E0,0E0,0E0,0E0,0E0,0E0],"parents":[2147483647,0,0,1,1,2,2,3,3,4,4,5,5,7,7,8,8,9,9,10,10,11,11,13,13,15,15,16,16,18,18,23,23,25,25,26,26,27,27,29,29],"right_children":[2,4,6,8,10,12,-1,14,16,18,20,22,-1,24,-1,26,28,-1,30,-1,-1,-1,-1,32,-1,34,36,38,-1,40,-1,-1,-1,-1,-1,-1,-1,-1,-1,-1,-1],"split_conditions":[5E-1,5E-1,5E-1,4.55E1,5E-1,5E-1,3.1127555E-2,5E-1,5E-1,4.55E1,4.65E1,5E-1,1.586895E-2,5E-1,-5.597588E-2,5E-1,5E-1,-3.7286293E-2,5E-1,-7.1785036E-3,-5.6277804E-2,-2.5363011E-2,-5.6953605E-2,5E-1,-5.472389E-2,5E-1,5E-1,5E-1,5.21226E-2,5E-1,2.1964509E-2,5.660319E-2,-3.502627E-2,9.490892E-3,-3.0684443E-2,-5.2135788E-2,7.52649E-2,-3.6757164E-2,1.7218638E-2,-1.7508464E-2,6.1103674E-3],"split_indices":[13,34,10,1,4,8,0,20,10,1,1,4,0,33,0,26,33,0,10,0,0,0,0,22,0,27,8,16,0,6,0,0,0,0,0,0,0,0,0,0,0],"split_type":[0,0,0,0,0,0,0,0,0,0,0,0,0,0,0,0,0,0,0,0,0,0,0,0,0,0,0,0,0,0,0,0,0,0,0,0,0,0,0,0,0],"sum_hessian":[2.51E2,2.41E2,1E1,2.31E2,1E1,9E0,1E0,1.4E1,2.17E2,8E0,2E0,8E0,1E0,1.3E1,1E0,1.95E2,2.2E1,1E0,7E0,1E0,1E0,6E0,2E0,1.2E1,1E0,1.86E2,9E0,2.1E1,1E0,6E0,1E0,1.1E1,1E0,1.77E2,9E0,8E0,1E0,2E1,1E0,5E0,1E0],"tree_param":{"num_deleted":"0","num_feature":"35","num_nodes":"41","size_leaf_vector":"0"}},{"base_weights":[2.1891696E-3,5.9218146E-3,-8.012804E-2,9.937267E-3,-7.930606E-2,-4.3477368E-2,-2.2331735E-1,1.3882809E-2,-7.059434E-2,-1.03395686E-1,8.079511E-2,-1.5505102E-1,-1.3852404E-2,1.8032148E-2,-6.734837E-2,-2.482303E-2,-1.4448838E-1,-1.2987697E-1,6.74679E-2,-5.250413E-2,1.476807E-1,2.6450366E-2,-2.5295699E-2,-8.687672E-2,6.396757E-2,-4.6711035E-2,6.41965E-2,-1.4681807E-1,-4.7055382E-2,-8.320361E-3,-1.2337029E-1,3.2624234E-2,-8.053303E-2,6.0968317E-2,-8.57083E-2,-5.1229864E-2,-1.2753953E-1,-7.075825E-2,4.878614E-2,-8.640196E-2,-1.9857223E-1,-8.965394E-2,1.9070864E-2,1.5249181E-2,-6.3084036E-2],"categories":[],"categories_nodes":[],"categories_segments":[],"categories_sizes":[],"default_left":[1,1,1,1,1,1,0,1,1,1,0,0,1,1,1,1,0,1,0,1,0,1,1,1,0,1,0,1,1,1,0,0,0,0,0,0,0,0,0,0,0,0,0,0,0],"id":24,"left_children":[1,3,5,7,9,11,-1,13,15,17,-1,-1,19,21,23,25,-1,27,-1,29,-1,31,33,35,-1,37,-1,39,41,43,-1,-1,-1,-1,-1,-1,-1,-1,-1,-1,-1,-1,-1,-1,-1],"loss_changes":[7.790425E-2,8.360737E-2,4.8018575E-2,7.469593E-2,5.0778426E-2,3.0905828E-2,0E0,7.604083E-2,3.3617858E-2,5.4009385E-2,0E0,0E0,6.394565E-2,7.799464E-2,3.3765513E-2,1.8586364E-2,0E0,5.7192147E-3,0E0,2.4022587E-2,0E0,1.2019654E-1,1.8762565E-1,7.961176E-3,0E0,1.9527115E-2,0E0,4.730463E-3,1.0160428E-2,8.706508E-3,0E0,0E0,0E0,0E0,0E0,0E0,0E0,0E0,0E0,0E0,0E0,0E0,0E0,0E0,0E0],"parents":[2147483647,0,0,1,1,2,2,3,3,4,4,5,5,7,7,8,8,9,9,12,12,13,13,14,14,15,15,17,17,19,19,21,21,22,22,23,23,25,25,27,27,28,28,29,29],"right_children":[2,4,6,8,10,12,-1,14,16,18,-1,-1,20,22,24,26,-1,28,-1,30,-1,32,34,36,-1,38,-1,40,42,44,-1,-1,-1,-1,-1,-1,-1,-1,-1,-1,-1,-1,-1,-1,-1],"split_conditions":[5E-1,5E-1,5E-1,5E-1,5E-1,4.55E1,-6.699521E-2,5E-1,4.65E1,5E-1,2.4238534E-2,-4.651531E-2,5E-1,5E-1,5E-1,5E-1,-4.3346517E-2,5E-1,2.024037E-2,5E-1,4.430421E-2,5E-1,4.55E1,4.65E1,1.9190272E-2,5E-1,1.925895E-2,4.65E1,4.65E1,5E-1,-3.7011087E-2,9.787271E-3,-2.415991E-2,1.8290495E-2,-2.571249E-2,-1.536896E-2,-3.826186E-2,-2.1227477E-2,1.4635843E-2,-2.592059E-2,-5.9571672E-2,-2.6896182E-2,5.7212594E-3,4.5747543E-3,-1.8925212E-2],"split_indices":[33,14,8,16,7,1,0,15,1,10,0,0,10,10,10,6,0,6,0,5,0,13,1,1,0,10,0,1,1,7,0,0,0,0,0,0,0,0,0,0,0,0,0,0,0],"split_type":[0,0,0,0,0,0,0,0,0,0,0,0,0,0,0,0,0,0,0,0,0,0,0,0,0,0,0,0,0,0,0,0,0,0,0,0,0,0,0,0,0,0,0,0,0],"sum_hessian":[2.51E2,2.41E2,1E1,2.31E2,1E1,9E0,1E0,2.21E2,1E1,9E0,1E0,1E0,8E0,2.11E2,1E1,7E0,3E0,8E0,1E0,7E0,1E0,1.77E2,3.4E1,9E0,1E0,6E0,1E0,6E0,2E0,5E0,2E0,1.68E2,9E0,1.4E1,2E1,6E0,3E0,5E0,1E0,4E0,2E0,1E0,1E0,4E0,1E0],"tree_param":{"num_deleted":"0","num_feature":"35","num_nodes":"45","size_leaf_vector":"0"}},{"base_weights":[4.6227596E-4,7.908723E-3,-3.0548695E-2,2.4549472E-3,1.1346649E-1,-2.1460155E-2,-1.6275291E-1,-2.6442017E-3,9.7053625E-2,7.5217634E-3,3.581636E-1,-1.2812742E-2,-1.4401798E-1,-1.9435675E-1,-4.977262E-2,1.3172139E-3,-8.06984E-2,3.1613559E-3,3.150818E-1,-5.5983238E-2,2.2602838E-1,4.398201E-1,9.742528E-2,-2.036086E-2,9.964784E-2,7.043416E-2,-4.1034943E-3,-4.969885E-2,-1.643474E-1,3.13226E-2,-9.698367E-2,4.0926325E-1,6.335944E-2,-1.2531804E-1,1.8001276E-1,-2.859004E-2,9.889158E-2,1.2500197E-1,2.4469793E-2,2.4675146E-2,3.0977118E-1,-9.728469E-3,9.5102005E-2,-1.14789754E-1,-2.4001611E-2,7.9392955E-2,-5.923553E-2,-1.6628554E-1,3.9759755E-2,-3.6697567E-2,8.6337805E-2,3.225813E-1,-1.7424393E-1],"categories":[],"categories_nodes":[],"categories_segments":[],"categories_sizes":[],"default_left":[1,1,1,1,1,1,1,1,1,1,1,1,0,0,0,1,1,1,1,1,0,0,0,1,1,1,1,1,0,1,0,0,0,1,0,1,1,0,0,0,0,0,0,0,0,0,0,0,0,0,0,0,0],"id":25,"left_children":[1,3,5,7,9,11,13,15,17,19,21,23,-1,-1,-1,25,27,29,31,33,-1,-1,-1,35,37,39,41,43,-1,45,-1,-1,-1,47,-1,49,51,-1,-1,-1,-1,-1,-1,-1,-1,-1,-1,-1,-1,-1,-1,-1,-1],"loss_changes":[5.843384E-2,1.17161885E-1,5.5382915E-2,9.431932E-2,2.5654966E-1,4.7965713E-2,1.0381937E-3,5.7618443E-2,2.037155E-1,1.236639E-1,2.1023363E-2,4.0227864E-2,0E0,0E0,0E0,6.6979006E-2,1.5169859E-2,2.5599448E-2,4.5192063E-2,1.3709798E-1,0E0,0E0,0E0,4.5025364E-2,2.6594512E-3,1.3473009E-1,9.355792E-2,1.0626113E-2,0E0,3.5175018E-2,0E0,0E0,0E0,4.7188424E-2,0E0,4.1371386E-2,2.3950064E-1,0E0,0E0,0E0,0E0,0E0,0E0,0E0,0E0,0E0,0E0,0E0,0E0,0E0,0E0,0E0,0E0],"parents":[2147483647,0,0,1,1,2,2,3,3,4,4,5,5,6,6,7,7,8,8,9,9,10,10,11,11,15,15,16,16,17,17,18,18,19,19,23,23,24,24,25,25,26,26,27,27,29,29,33,33,35,35,36,36],"right_children":[2,4,6,8,10,12,14,16,18,20,22,24,-1,-1,-1,26,28,30,32,34,-1,-1,-1,36,38,40,42,44,-1,46,-1,-1,-1,48,-1,50,52,-1,-1,-1,-1,-1,-1,-1,-1,-1,-1,-1,-1,-1,-1,-1,-1],"split_conditions":[5E-1,5E-1,5E-1,5E-1,5E-1,5E-1,4.65E1,5E-1,5E-1,4.65E1,4.65E1,5E-1,-4.3205395E-2,-5.830703E-2,-1.4931787E-2,4.55E1,4.65E1,5E-1,4.65E1,5E-1,6.780852E-2,1.3194604E-1,2.9227586E-2,5E-1,4.65E1,5E-1,5E-1,4.55E1,-4.930422E-2,5E-1,-2.9095102E-2,1.2277898E-1,1.9007832E-2,5E-1,5.400383E-2,5E-1,4.65E1,3.750059E-2,7.3409383E-3,7.402544E-3,9.293136E-2,-2.9185407E-3,2.8530603E-2,-3.4436926E-2,-7.2004837E-3,2.3817888E-2,-1.7770661E-2,-4.9885664E-2,1.1927927E-2,-1.100927E-2,2.5901342E-2,9.677439E-2,-5.227318E-2],"split_indices":[5,24,24,23,4,26,1,34,4,1,1,20,0,0,0,1,1,9,1,8,0,0,0,32,1,26,22,1,0,10,0,0,0,9,0,31,1,0,0,0,0,0,0,0,0,0,0,0,0,0,0,0,0],"split_type":[0,0,0,0,0,0,0,0,0,0,0,0,0,0,0,0,0,0,0,0,0,0,0,0,0,0,0,0,0,0,0,0,0,0,0,0,0,0,0,0,0,0,0,0,0,0,0,0,0,0,0,0,0],"sum_hessian":[2.51E2,2.03E2,4.8E1,1.94E2,9E0,4.6E1,2E0,1.85E2,9E0,7E0,2E0,4.4E1,2E0,1E0,1E0,1.77E2,8E0,7E0,2E0,6E0,1E0,1E0,1E0,4.2E1,2E0,1.2E1,1.65E2,7E0,1E0,6E0,1E0,1E0,1E0,5E0,1E0,4E1,2E0,1E0,1E0,1.1E1,1E0,1.57E2,8E0,1E0,6E0,4E0,2E0,4E0,1E0,3.8E1,2E0,1E0,1E0],"tree_param":{"num_deleted":"0","num_feature":"35","num_nodes":"53","size_leaf_vector":"0"}},{"base_weights":[1.857548E-3,-1.4003476E-3,7.336238E-2,-4.536208E-3,6.486511E-2,3.4445193E-2,1.6565983E-1,-8.101948E-3,6.151085E-2,7.567719E-2,-2.1627843E-2,4.9345035E-2,-1.1802833E-2,6.289482E-3,2.4220026E-1,-1.1495665E-2,5.7732247E-2,8.9526325E-2,-5.23777E-2,8.7817594E-2,1.8077055E-2,5.6512255E-2,3.170848E-3,6.656647E-4,-1.8369913E-2,-1.5124612E-2,5.586015E-2,9.48547E-2,-3.0945718E-2,5.6094922E-2,1.952045E-1,9.810519E-2,7.902205E-3,6.806481E-2,-4.0949225E-2,6.629448E-2,3.800571E-3,-1.9285899E-2,5.2022815E-2,9.150407E-2,-6.969166E-2,1.196152E-1,-3.92344E-2,7.198366E-2,-1.6986692E-1,2.7914148E-2,1.4077055E-1,1.0949329E-1,1.4888287E-2,7.675639E-2,1.22234225E-2],"categories":[],"categories_nodes":[],"categories_segments":[],"categories_sizes":[],"default_left":[1,1,1,1,1,1,1,1,1,1,0,1,1,0,0,1,1,1,0,1,1,1,0,0,0,1,1,1,1,1,0,1,0,0,0,1,0,0,0,0,0,0,0,0,0,0,0,0,0,0,0],"id":26,"left_children":[1,3,5,7,9,11,13,15,17,19,-1,21,23,-1,-1,25,27,29,-1,31,33,35,-1,-1,-1,37,39,41,43,45,-1,47,-1,-1,-1,49,-1,-1,-1,-1,-1,-1,-1,-1,-1,-1,-1,-1,-1,-1,-1],"loss_changes":[5.8807466E-2,5.0581664E-2,3.380534E-2,5.513589E-2,1.1923585E-2,6.7842035E-3,3.5071515E-2,5.004006E-2,4.297689E-2,5.4054037E-3,0E0,2.1373946E-3,2.5787306E-4,0E0,0E0,5.241973E-2,3.9146725E-2,2.4379715E-2,0E0,5.801853E-3,1.1638975E-2,2.8418675E-3,0E0,0E0,0E0,5.7166666E-2,5.5603813E-2,3.125394E-2,6.942393E-2,1.7546533E-2,0E0,5.0036088E-3,0E0,0E0,0E0,1.8902048E-3,0E0,0E0,0E0,0E0,0E0,0E0,0E0,0E0,0E0,0E0,0E0,0E0,0E0,0E0,0E0],"parents":[2147483647,0,0,1,1,2,2,3,3,4,4,5,5,6,6,7,7,8,8,9,9,11,11,12,12,15,15,16,16,17,17,19,19,20,20,21,21,25,25,26,26,27,27,28,28,29,29,31,31,35,35],"right_children":[2,4,6,8,10,12,14,16,18,20,-1,22,24,-1,-1,26,28,30,-1,32,34,36,-1,-1,-1,38,40,42,44,46,-1,48,-1,-1,-1,50,-1,-1,-1,-1,-1,-1,-1,-1,-1,-1,-1,-1,-1,-1,-1],"split_conditions":[5E-1,5E-1,5E-1,5E-1,5E-1,5E-1,4.65E1,5E-1,5E-1,5E-1,-6.4883535E-3,5E-1,4.65E1,1.8868448E-3,7.266008E-2,5E-1,4.65E1,5E-1,-1.5713312E-2,5E-1,4.55E1,5E-1,9.512544E-4,1.9969941E-4,-5.510974E-3,5E-1,4.65E1,5E-1,5E-1,5E-1,5.856135E-2,5E-1,2.3706616E-3,2.0419443E-2,-1.2284768E-2,4.65E1,1.1401713E-3,-5.78577E-3,1.5606845E-2,2.745122E-2,-2.0907499E-2,3.588456E-2,-1.177032E-2,2.1595098E-2,-5.096008E-2,8.374245E-3,4.223117E-2,3.284799E-2,4.466486E-3,2.3026917E-2,3.667027E-3],"split_indices":[19,32,4,29,9,6,1,18,6,10,0,8,1,0,0,31,1,9,0,8,1,7,0,0,0,24,1,8,4,7,0,6,0,0,0,1,0,0,0,0,0,0,0,0,0,0,0,0,0,0,0],"split_type":[0,0,0,0,0,0,0,0,0,0,0,0,0,0,0,0,0,0,0,0,0,0,0,0,0,0,0,0,0,0,0,0,0,0,0,0,0,0,0,0,0,0,0,0,0,0,0,0,0,0,0],"sum_hessian":[2.51E2,2.41E2,1E1,2.31E2,1E1,8E0,2E0,2.2E2,1.1E1,9E0,1E0,6E0,2E0,1E0,1E0,2.1E2,1E1,9E0,2E0,7E0,2E0,5E0,1E0,1E0,1E0,2E2,1E1,7E0,3E0,8E0,1E0,6E0,1E0,1E0,1E0,4E0,1E0,1.89E2,1.1E1,8E0,2E0,6E0,1E0,2E0,1E0,7E0,1E0,5E0,1E0,3E0,1E0],"tree_param":{"num_deleted":"0","num_feature":"35","num_nodes":"51","size_leaf_vector":"0"}},{"base_weights":[2.268228E-3,5.0664884E-3,-5.9499703E-2,8.063537E-3,-5.8604576E-2,-2.3952328E-2,-1.1571953E-1,1.1219852E-2,-5.6369696E-2,-2.7371515E-2,-1.854676E-1,-5.2618973E-2,8.835709E-2,1.4622324E-2,-5.5375043E-2,-7.7217154E-2,7.605244E-2,-1.3260171E-1,-9.457469E-4,-6.9933586E-2,2.5634348E-2,4.279741E-3,4.2009875E-2,-7.270448E-2,5.8959663E-2,-8.2686685E-2,-1.3995692E-2,-3.3534147E-2,1.2988073E-1,-8.347696E-2,-1.1083484E-3,1.3914333E-2,-1.5356079E-1,2.0665769E-2,3.2498887E-1,-4.1592952E-2,-1.0897353E-1,-9.363181E-2,-2.9585829E-2,-9.6242625E-4,-8.749954E-2,-9.825504E-2,-1.2182325E-2],"categories":[],"categories_nodes":[],"categories_segments":[],"categories_sizes":[],"default_left":[1,1,1,1,1,1,0,1,1,1,0,1,0,1,1,1,0,0,1,1,0,1,1,1,0,1,0,1,0,1,0,0,0,0,0,0,0,0,0,0,0,0,0],"id":27,"left_children":[1,3,5,7,9,11,-1,13,15,17,-1,19,-1,21,23,25,-1,-1,27,29,-1,31,33,35,-1,37,-1,39,-1,41,-1,-1,-1,-1,-1,-1,-1,-1,-1,-1,-1,-1,-1],"loss_changes":[4.3857828E-2,4.6652276E-2,1.9211382E-2,4.781467E-2,3.8509E-2,3.040553E-2,0E0,5.1112078E-2,3.623987E-2,2.768248E-2,0E0,1.1277182E-2,0E0,5.9870902E-2,2.608155E-2,2.300661E-3,0E0,0E0,4.2726267E-2,5.5002365E-3,0E0,2.378497E-1,3.4360003E-1,6.751325E-3,0E0,2.4605803E-3,0E0,1.3977755E-2,0E0,4.071012E-3,0E0,0E0,0E0,0E0,0E0,0E0,0E0,0E0,0E0,0E0,0E0,0E0,0E0],"parents":[2147483647,0,0,1,1,2,2,3,3,4,4,5,5,7,7,8,8,9,9,11,11,13,13,14,14,15,15,18,18,19,19,21,21,22,22,23,23,25,25,27,27,29,29],"right_children":[2,4,6,8,10,12,-1,14,16,18,-1,20,-1,22,24,26,-1,-1,28,30,-1,32,34,36,-1,38,-1,40,-1,42,-1,-1,-1,-1,-1,-1,-1,-1,-1,-1,-1,-1,-1],"split_conditions":[5E-1,5E-1,4.65E1,5E-1,5E-1,5E-1,-3.471586E-2,5E-1,5E-1,4.55E1,-5.5640284E-2,5E-1,2.6507128E-2,4.65E1,5E-1,5E-1,2.2815734E-2,-3.9780512E-2,5E-1,5E-1,7.690305E-3,5E-1,5E-1,4.65E1,1.76879E-2,5E-1,-4.1987076E-3,5E-1,3.896422E-2,5E-1,-3.325045E-4,4.1743E-3,-4.6068236E-2,6.199731E-3,9.7496666E-2,-1.2477886E-2,-3.269206E-2,-2.8089544E-2,-8.875749E-3,-2.887279E-4,-2.6249861E-2,-2.9476512E-2,-3.6546977E-3],"split_indices":[17,33,1,11,8,5,0,12,10,1,0,6,0,1,10,7,0,0,10,7,0,25,25,1,0,6,0,5,0,8,0,0,0,0,0,0,0,0,0,0,0,0,0],"split_type":[0,0,0,0,0,0,0,0,0,0,0,0,0,0,0,0,0,0,0,0,0,0,0,0,0,0,0,0,0,0,0,0,0,0,0,0,0,0,0,0,0,0,0],"sum_hessian":[2.51E2,2.41E2,1E1,2.31E2,1E1,7E0,3E0,2.21E2,1E1,9E0,1E0,6E0,1E0,2.11E2,1E1,9E0,1E0,1E0,8E0,5E0,1E0,1.54E2,5.7E1,9E0,1E0,8E0,1E0,7E0,1E0,4E0,1E0,1.46E2,8E0,5.4E1,3E0,6E0,3E0,6E0,2E0,5E0,2E0,3E0,1E0],"tree_param":{"num_deleted":"0","num_feature":"35","num_nodes":"43","size_leaf_vector":"0"}},{"base_weights":[1.1869395E-3,3.78739E-3,-5.6130875E-2,6.4690034E-3,-5.311458E-2,-7.593213E-2,7.094085E-2,1.2726449E-2,-1.9816972E-2,-2.9200267E-2,-1.0715267E-1,-9.761631E-2,5.9612714E-2,2.929542E-3,4.6712615E-2,-1.0119911E-2,-1.5220252E-1,-9.676555E-2,-8.658914E-3,-2.0826757E-2,-1.3990225E-1,-1.09370016E-1,-3.7652213E-2,7.5187986E-3,-7.774864E-2,2.858302E-2,2.728697E-1,-2.2124532E-3,-1.14815205E-1,-3.2608755E-2,7.949499E-2,-6.0423333E-2,-1.5449114E-1,-7.394084E-2,1.7462522E-2,1.1952235E-2,-6.712694E-2,2.6411128E-1,-1.6431595E-1,9.738887E-3,2.5774768E-1,-2.1071815E-1,6.200227E-1,6.0439277E-3,-1.0880792E-1,-4.3651897E-2,1.682505E-2,-1.0394335E-1,5.6828365E-2],"categories":[],"categories_nodes":[],"categories_segments":[],"categories_sizes":[],"default_left":[1,1,1,1,1,1,0,1,1,1,1,1,0,1,1,1,0,0,1,0,0,1,1,1,1,1,1,1,0,1,0,1,0,0,0,0,0,0,0,0,0,0,0,0,0,0,0,0,0],"id":28,"left_children":[1,3,5,7,9,11,-1,13,15,17,19,21,-1,23,25,27,-1,-1,29,-1,-1,31,33,35,37,39,41,43,-1,45,-1,47,-1,-1,-1,-1,-1,-1,-1,-1,-1,-1,-1,-1,-1,-1,-1,-1,-1],"loss_changes":[3.7773725E-2,3.7270162E-2,3.3064675E-2,3.8412273E-2,1.1086237E-2,3.521096E-2,0E0,6.2459502E-2,5.62285E-2,1.1653056E-2,5.5677034E-3,2.2251755E-3,0E0,5.501175E-2,1.6440633E-1,3.534455E-2,0E0,0E0,1.948241E-2,0E0,0E0,6.1248466E-3,7.291308E-3,4.713352E-2,2.8014886E-1,1.702262E-1,6.34287E-1,3.674143E-2,0E0,4.555778E-3,0E0,3.142091E-2,0E0,0E0,0E0,0E0,0E0,0E0,0E0,0E0,0E0,0E0,0E0,0E0,0E0,0E0,0E0,0E0,0E0],"parents":[2147483647,0,0,1,1,2,2,3,3,4,4,5,5,7,7,8,8,9,9,10,10,11,11,13,13,14,14,15,15,18,18,21,21,22,22,23,23,24,24,25,25,26,26,27,27,29,29,31,31],"right_children":[2,4,6,8,10,12,-1,14,16,18,20,22,-1,24,26,28,-1,-1,30,-1,-1,32,34,36,38,40,42,44,-1,46,-1,48,-1,-1,-1,-1,-1,-1,-1,-1,-1,-1,-1,-1,-1,-1,-1,-1,-1],"split_conditions":[5E-1,5E-1,5E-1,5E-1,5E-1,5E-1,2.1282256E-2,4.65E1,5E-1,4.55E1,4.65E1,5E-1,1.7883815E-2,5E-1,5E-1,5E-1,-4.5660757E-2,-2.9029666E-2,5E-1,-6.2480276E-3,-4.1970678E-2,4.65E1,4.65E1,5E-1,4.55E1,5E-1,5E-1,5E-1,-3.4444563E-2,5E-1,2.3848498E-2,5E-1,-4.6347342E-2,-2.2182254E-2,5.2387565E-3,3.5856708E-3,-2.0138081E-2,7.9233386E-2,-4.929479E-2,2.921666E-3,7.732431E-2,-6.321545E-2,1.8600681E-1,1.8131784E-3,-3.264238E-2,-1.309557E-2,5.047515E-3,-3.1183006E-2,1.704851E-2],"split_indices":[14,34,7,5,4,10,0,1,24,1,1,6,0,26,21,26,0,0,10,0,0,1,1,25,1,22,4,23,0,6,0,4,0,0,0,0,0,0,0,0,0,0,0,0,0,0,0,0,0],"split_type":[0,0,0,0,0,0,0,0,0,0,0,0,0,0,0,0,0,0,0,0,0,0,0,0,0,0,0,0,0,0,0,0,0,0,0,0,0,0,0,0,0,0,0,0,0,0,0,0,0],"sum_hessian":[2.51E2,2.41E2,1E1,2.31E2,1E1,9E0,1E0,1.87E2,4.4E1,8E0,2E0,8E0,1E0,1.46E2,4.1E1,4.2E1,2E0,1E0,7E0,1E0,1E0,6E0,2E0,1.39E2,7E0,3.9E1,2E0,4E1,2E0,6E0,1E0,4E0,2E0,1E0,1E0,1.32E2,7E0,1E0,6E0,3.7E1,2E0,1E0,1E0,3.8E1,2E0,5E0,1E0,3E0,1E0],"tree_param":{"num_deleted":"0","num_feature":"35","num_nodes":"49","size_leaf_vector":"0"}},{"base_weights":[8.538004E-4,3.2275044E-3,-5.1445305E-2,-7.1473676E-4,3.9065976E-2,-2.4701774E-2,-1.5944031E-1,3.1505835E-3,-7.4090846E-2,1.9172657E-2,2.4830616E-1,-1.1450431E-1,-2.001014E-3,6.2905503E-3,-5.3940687E-2,2.4776113E-1,-1.3105215E-1,-1.3439723E-3,2.3526925E-1,-2.9402576E-2,1.0860574E-1,1.3869292E-2,-3.0896557E-2,2.2449458E-1,-1.0423367E-1,-1.6950706E-1,1.07521E-1,-1.7277936E-2,1.6663462E-1,-3.5992365E-3,-7.1208395E-2,1.8871801E-2,-7.5493574E-2,-1.1546576E-2,-2.269975E-1,-1.987806E-1,8.728186E-2,-1.9079958E-1,-6.3322164E-2,-3.227457E-2,1.4132738E-1,1.6048025E-2,-5.0917774E-2],"categories":[],"categories_nodes":[],"categories_segments":[],"categories_sizes":[],"default_left":[1,1,1,1,1,1,0,1,1,1,0,0,1,1,1,0,1,1,0,1,0,1,1,0,1,1,0,1,0,1,0,0,0,0,0,0,0,0,0,0,0,0,0],"id":29,"left_children":[1,3,5,7,9,11,-1,13,15,17,-1,-1,19,21,23,-1,25,27,-1,29,-1,31,33,-1,35,37,-1,39,-1,41,-1,-1,-1,-1,-1,-1,-1,-1,-1,-1,-1,-1,-1],"loss_changes":[3.1449974E-2,3.421862E-2,2.7831385E-2,6.2346682E-2,9.513888E-2,2.0156734E-2,0E0,3.780564E-2,2.3413382E-1,1.0228839E-1,0E0,0E0,3.047047E-2,5.6512978E-2,1.7743663E-1,0E0,1.0996866E-1,6.176352E-2,0E0,8.373543E-3,0E0,7.56331E-2,1.2639363E-1,0E0,1.9842197E-1,8.266628E-3,0E0,5.451075E-2,0E0,6.3952077E-3,0E0,0E0,0E0,0E0,0E0,0E0,0E0,0E0,0E0,0E0,0E0,0E0,0E0],"parents":[2147483647,0,0,1,1,2,2,3,3,4,4,5,5,7,7,8,8,9,9,12,12,13,13,14,14,16,16,17,17,19,19,21,21,22,22,24,24,25,25,27,27,29,29],"right_children":[2,4,6,8,10,12,-1,14,16,18,-1,-1,20,22,24,-1,26,28,-1,30,-1,32,34,-1,36,38,-1,40,-1,42,-1,-1,-1,-1,-1,-1,-1,-1,-1,-1,-1,-1,-1],"split_conditions":[5E-1,5E-1,5E-1,5E-1,5E-1,4.55E1,-4.7832094E-2,5E-1,4.55E1,5E-1,7.449185E-2,-3.4351293E-2,5E-1,5E-1,4.55E1,7.432834E-2,5E-1,5E-1,7.058078E-2,5E-1,3.2581724E-2,5E-1,5E-1,6.7348376E-2,4.65E1,5E-1,3.22563E-2,5E-1,4.999039E-2,5E-1,-2.1362519E-2,5.6615407E-3,-2.2648074E-2,-3.463973E-3,-6.809925E-2,-5.9634183E-2,2.6184559E-2,-5.7239875E-2,-1.899665E-2,-9.682371E-3,4.2398214E-2,4.814408E-3,-1.5275333E-2],"split_indices":[33,8,8,27,25,1,0,26,1,26,0,0,10,10,1,0,9,27,0,5,0,13,22,0,1,6,0,24,0,7,0,0,0,0,0,0,0,0,0,0,0,0,0],"split_type":[0,0,0,0,0,0,0,0,0,0,0,0,0,0,0,0,0,0,0,0,0,0,0,0,0,0,0,0,0,0,0,0,0,0,0,0,0,0,0,0,0,0,0],"sum_hessian":[2.51E2,2.41E2,1E1,2.18E2,2.3E1,9E0,1E0,2.08E2,1E1,2.2E1,1E0,1E0,8E0,1.98E2,1E1,1E0,9E0,2.1E1,1E0,7E0,1E0,1.65E2,3.3E1,1E0,9E0,8E0,1E0,2E1,1E0,5E0,2E0,1.57E2,8E0,3.1E1,2E0,6E0,3E0,6E0,2E0,1.9E1,1E0,4E0,1E0],"tree_param":{"num_deleted":"0","num_feature":"35","num_nodes":"43","size_leaf_vector":"0"}},{"base_weights":[1.0820101E-3,3.5315978E-3,-5.2907284E-2,6.100836E-3,-5.0977036E-2,-1.5628688E-2,-1.1423765E-1,8.876817E-3,-5.047813E-2,-6.7390054E-2,5.6576587E-2,-3.2778043E-2,5.2208394E-2,-1.294098E-1,-3.4360588E-2,1.1734213E-2,-4.6999965E-2,-2.1485988E-2,-9.584288E-2,-3.8498778E-2,-1.01102285E-1,-5.2798506E-2,4.3672368E-2,6.745929E-3,5.678261E-2,-6.1710935E-2,5.0054863E-2,-4.4945754E-2,7.136619E-2,-1.0906122E-1,-2.8093934E-2,-5.5802595E-2,3.2662064E-2,-1.1796566E-1,-2.5256082E-2,-6.15971E-2,-4.4027567E-3,-4.6400386E-3,3.3794098E-2,3.642502E-2,2.3196721E-1,-6.936411E-2,3.5838038E-3,-5.8158573E-2,1.7165571E-2,-7.751237E-2,2.6373148E-2,-7.055315E-2,-1.2886465E-2],"categories":[],"categories_nodes":[],"categories_segments":[],"categories_sizes":[],"default_left":[1,1,1,1,1,1,1,1,1,1,0,1,0,0,0,1,1,1,1,1,1,1,0,1,1,1,0,1,0,0,0,1,0,0,0,1,0,0,0,0,0,0,0,0,0,0,0,0,0],"id":30,"left_children":[1,3,5,7,9,11,13,15,17,19,-1,21,-1,-1,-1,23,25,27,29,31,33,35,-1,37,39,41,-1,43,-1,-1,-1,45,-1,-1,-1,47,-1,-1,-1,-1,-1,-1,-1,-1,-1,-1,-1,-1,-1],"loss_changes":[3.3514228E-2,3.420206E-2,2.3364028E-2,3.68865E-2,2.3230778E-2,1.1018186E-2,4.0103123E-4,3.599649E-2,1.2408156E-2,5.8475807E-3,0E0,1.3019845E-2,0E0,0E0,0E0,4.7256358E-2,1.879441E-2,2.063393E-2,5.181581E-4,1.0442108E-2,2.1367408E-3,2.2836905E-3,0E0,5.9286952E-2,6.644366E-2,5.2457005E-3,0E0,6.742982E-3,0E0,0E0,0E0,1.2748348E-2,0E0,0E0,0E0,1.2720935E-3,0E0,0E0,0E0,0E0,0E0,0E0,0E0,0E0,0E0,0E0,0E0,0E0,0E0],"parents":[2147483647,0,0,1,1,2,2,3,3,4,4,5,5,6,6,7,7,8,8,9,9,11,11,15,15,16,16,17,17,18,18,19,19,20,20,21,21,23,23,24,24,25,25,27,27,31,31,35,35],"right_children":[2,4,6,8,10,12,14,16,18,20,-1,22,-1,-1,-1,24,26,28,30,32,34,36,-1,38,40,42,-1,44,-1,-1,-1,46,-1,-1,-1,48,-1,-1,-1,-1,-1,-1,-1,-1,-1,-1,-1,-1,-1],"split_conditions":[5E-1,5E-1,4.65E1,5E-1,5E-1,5E-1,5E-1,5E-1,4.65E1,4.65E1,1.6972978E-2,5E-1,1.566252E-2,-3.882294E-2,-1.0308176E-2,5E-1,5E-1,5E-1,5E-1,5E-1,5E-1,5E-1,1.3101711E-2,4.65E1,5E-1,5E-1,1.501646E-2,5E-1,2.1409858E-2,-3.2718368E-2,-8.428181E-3,5E-1,9.79862E-3,-3.53897E-2,-7.576825E-3,5E-1,-1.320827E-3,-1.3920116E-3,1.01382295E-2,1.0927507E-2,6.9590166E-2,-2.0809233E-2,1.0751411E-3,-1.7447572E-2,5.149672E-3,-2.3253711E-2,7.911945E-3,-2.1165945E-2,-3.8659396E-3],"split_indices":[16,15,1,17,10,6,5,12,1,1,0,10,0,0,0,9,10,5,4,6,5,7,0,1,30,7,0,6,0,0,0,4,0,0,0,9,0,0,0,0,0,0,0,0,0,0,0,0,0],"split_type":[0,0,0,0,0,0,0,0,0,0,0,0,0,0,0,0,0,0,0,0,0,0,0,0,0,0,0,0,0,0,0,0,0,0,0,0,0,0,0,0,0,0,0,0,0,0,0,0,0],"sum_hessian":[2.51E2,2.41E2,1E1,2.31E2,1E1,7E0,3E0,2.21E2,1E1,9E0,1E0,6E0,1E0,2E0,1E0,2.11E2,1E1,7E0,3E0,6E0,3E0,5E0,1E0,1.91E2,2E1,9E0,1E0,6E0,1E0,2E0,1E0,5E0,1E0,2E0,1E0,4E0,1E0,1.35E2,5.6E1,1.9E1,1E0,8E0,1E0,5E0,1E0,4E0,1E0,3E0,1E0],"tree_param":{"num_deleted":"0","num_feature":"35","num_nodes":"49","size_leaf_vector":"0"}},{"base_weights":[6.552453E-4,2.9489114E-3,-4.9864974E-2,5.3846543E-3,-4.8691202E-2,-6.790742E-2,6.527974E-2,7.9466235E-3,-4.6810057E-2,-6.519331E-2,5.8164954E-2,-7.482343E-2,-2.8316677E-3,1.0675303E-2,-4.5364883E-2,-2.462245E-2,-9.776953E-2,-8.423674E-2,5.309879E-2,-8.635674E-2,-2.2971233E-2,5.8172876E-3,5.458309E-2,-2.2935718E-2,-1.3482827E-1,-7.982272E-2,-7.744577E-3,-1.9837499E-2,-1.268168E-1,-8.977039E-2,-1.9983783E-2,-9.547488E-2,-1.5823945E-2,9.286047E-3,-5.2103758E-2,6.8417415E-2,-1.1105168E-1,-9.663263E-2,-4.0102135E-3,-2.8850581E-2,6.9998726E-2,-1.0034678E-1,-3.8694154E-2,-1.1881666E-1,-3.2527547E-2],"categories":[],"categories_nodes":[],"categories_segments":[],"categories_sizes":[],"default_left":[1,1,1,1,1,1,0,1,1,1,0,1,0,1,1,1,1,1,0,1,0,1,1,1,0,0,1,0,0,1,0,1,0,0,0,0,0,0,0,0,0,0,0,0,0],"id":31,"left_children":[1,3,5,7,9,11,-1,13,15,17,-1,19,-1,21,23,25,27,29,-1,31,-1,33,35,37,-1,-1,39,-1,-1,41,-1,43,-1,-1,-1,-1,-1,-1,-1,-1,-1,-1,-1,-1,-1],"loss_changes":[2.9347928E-2,3.070144E-2,2.7285391E-2,3.1395312E-2,2.3188839E-2,4.2887703E-3,0E0,3.2778624E-2,1.0030031E-2,2.699975E-2,0E0,3.3985265E-3,0E0,4.4903077E-2,1.8980097E-2,7.7667753E-3,4.2754095E-3,1.4060214E-3,0E0,2.9911064E-3,0E0,3.905936E-2,5.5718213E-2,1.3559995E-2,0E0,0E0,1.5146309E-2,0E0,0E0,4.3878704E-4,0E0,4.951E-3,0E0,0E0,0E0,0E0,0E0,0E0,0E0,0E0,0E0,0E0,0E0,0E0,0E0],"parents":[2147483647,0,0,1,1,2,2,3,3,4,4,5,5,7,7,8,8,9,9,11,11,13,13,14,14,15,15,16,16,17,17,19,19,21,21,22,22,23,23,26,26,29,29,31,31],"right_children":[2,4,6,8,10,12,-1,14,16,18,-1,20,-1,22,24,26,28,30,-1,32,-1,34,36,38,-1,-1,40,-1,-1,42,-1,44,-1,-1,-1,-1,-1,-1,-1,-1,-1,-1,-1,-1,-1],"split_conditions":[5E-1,5E-1,5E-1,5E-1,5E-1,5E-1,1.9583922E-2,5E-1,5E-1,5E-1,1.7449487E-2,5E-1,-8.4950036E-4,5E-1,5E-1,4.55E1,4.65E1,5E-1,1.5929637E-2,5E-1,-6.8913703E-3,5E-1,5E-1,4.55E1,-4.0448483E-2,-2.3946816E-2,5E-1,-5.95125E-3,-3.804504E-2,5E-1,-5.9951353E-3,5E-1,-4.747184E-3,2.7858142E-3,-1.5631128E-2,2.0525225E-2,-3.3315506E-2,-2.898979E-2,-1.2030641E-3,-8.655175E-3,2.0999618E-2,-3.0104036E-2,-1.1608247E-2,-3.5645E-2,-9.758265E-3],"split_indices":[11,14,10,34,7,8,0,33,4,10,0,5,0,8,8,1,1,8,0,7,0,27,28,1,0,0,10,0,0,6,0,6,0,0,0,0,0,0,0,0,0,0,0,0,0],"split_type":[0,0,0,0,0,0,0,0,0,0,0,0,0,0,0,0,0,0,0,0,0,0,0,0,0,0,0,0,0,0,0,0,0,0,0,0,0,0,0,0,0,0,0,0,0],"sum_hessian":[2.51E2,2.41E2,1E1,2.31E2,1E1,9E0,1E0,2.21E2,1E1,9E0,1E0,8E0,1E0,2.11E2,1E1,8E0,2E0,8E0,1E0,6E0,2E0,1.91E2,2E1,9E0,1E0,1E0,7E0,1E0,1E0,7E0,1E0,5E0,1E0,1.81E2,1E1,1.9E1,1E0,1E0,8E0,6E0,1E0,5E0,2E0,3E0,2E0],"tree_param":{"num_deleted":"0","num_feature":"35","num_nodes":"45","size_leaf_vector":"0"}},{"base_weights":[-3.5288706E-4,1.6974196E-3,-4.5427553E-2,3.794969E-3,-4.269612E-2,-1.5293643E-2,-9.4338484E-2,6.0664252E-3,-4.239214E-2,-5.630517E-2,4.66972E-2,-2.9759662E-2,4.2984247E-2,8.344406E-3,-3.838797E-2,-1.8556193E-2,-7.9466E-2,-6.412148E-2,7.0208013E-3,-4.6629142E-2,3.5728604E-2,4.353528E-3,4.443508E-2,-5.332432E-2,5.548778E-2,-3.8140893E-2,5.9268355E-2,-4.0447164E-2,-8.360258E-2,-5.3900875E-2,-5.135238E-3,-4.204301E-3,2.4695829E-2,2.7078915E-2,1.957792E-1,-5.8714375E-2,-2.40691E-3,-4.8896987E-2,1.3197839E-2,-5.9084535E-2,2.636984E-2,-9.6229725E-2,-2.2860572E-2,-6.12029E-2,-1.2346387E-2],"categories":[],"categories_nodes":[],"categories_segments":[],"categories_sizes":[],"default_left":[1,1,1,1,1,1,0,1,1,1,0,1,0,1,1,1,0,1,0,1,0,1,1,1,0,1,0,1,1,1,0,0,0,0,0,0,0,0,0,0,0,0,0,0,0],"id":32,"left_children":[1,3,5,7,9,11,-1,13,15,17,-1,19,-1,21,23,25,-1,27,-1,29,-1,31,33,35,-1,37,-1,39,41,43,-1,-1,-1,-1,-1,-1,-1,-1,-1,-1,-1,-1,-1,-1,-1],"loss_changes":[2.3366164E-2,2.26965E-2,1.47698745E-2,2.459675E-2,1.6011432E-2,8.02359E-3,0E0,2.2801433E-2,8.24601E-3,5.3999387E-3,0E0,9.399265E-3,0E0,3.034165E-2,1.8382624E-2,1.4453912E-2,0E0,7.693283E-4,0E0,1.5336014E-3,0E0,3.3528324E-2,4.986034E-2,2.6031565E-3,0E0,4.510765E-3,0E0,9.029808E-3,8.6812675E-4,7.615248E-4,0E0,0E0,0E0,0E0,0E0,0E0,0E0,0E0,0E0,0E0,0E0,0E0,0E0,0E0,0E0],"parents":[2147483647,0,0,1,1,2,2,3,3,4,4,5,5,7,7,8,8,9,9,11,11,13,13,14,14,15,15,17,17,19,19,21,21,22,22,23,23,25,25,27,27,28,28,29,29],"right_children":[2,4,6,8,10,12,-1,14,16,18,-1,20,-1,22,24,26,-1,28,-1,30,-1,32,34,36,-1,38,-1,40,42,44,-1,-1,-1,-1,-1,-1,-1,-1,-1,-1,-1,-1,-1,-1,-1],"split_conditions":[5E-1,5E-1,4.65E1,5E-1,5E-1,5E-1,-2.8301546E-2,5E-1,4.65E1,5E-1,1.400916E-2,5E-1,1.2895275E-2,5E-1,5E-1,5E-1,-2.3839802E-2,4.65E1,2.1062405E-3,5E-1,1.0718581E-2,4.65E1,5E-1,5E-1,1.6646335E-2,5E-1,1.7780507E-2,5E-1,5E-1,5E-1,-1.5405716E-3,-1.2612904E-3,7.408749E-3,8.123675E-3,5.8733765E-2,-1.7614312E-2,-7.22073E-4,-1.4669097E-2,3.959352E-3,-1.7725362E-2,7.910952E-3,-2.886892E-2,-6.858172E-3,-1.836087E-2,-3.7039162E-3],"split_indices":[16,15,1,17,10,6,0,11,1,7,0,10,0,9,10,5,0,1,0,7,0,1,30,8,0,6,0,6,5,9,0,0,0,0,0,0,0,0,0,0,0,0,0,0,0],"split_type":[0,0,0,0,0,0,0,0,0,0,0,0,0,0,0,0,0,0,0,0,0,0,0,0,0,0,0,0,0,0,0,0,0,0,0,0,0,0,0,0,0,0,0,0,0],"sum_hessian":[2.51E2,2.41E2,1E1,2.31E2,1E1,7E0,3E0,2.21E2,1E1,9E0,1E0,6E0,1E0,2.11E2,1E1,7E0,3E0,8E0,1E0,5E0,1E0,1.91E2,2E1,9E0,1E0,6E0,1E0,5E0,3E0,4E0,1E0,1.35E2,5.6E1,1.9E1,1E0,8E0,1E0,5E0,1E0,4E0,1E0,2E0,1E0,3E0,1E0],"tree_param":{"num_deleted":"0","num_feature":"35","num_nodes":"45","size_leaf_vector":"0"}},{"base_weights":[-2.5963335E-4,4.207656E-3,-1.8852845E-2,9.186358E-4,6.792278E-2,-1.1206701E-2,-1.3235815E-1,-2.670208E-3,6.757927E-2,-1.0891605E-2,2.5545356E-1,-5.195279E-3,-9.764246E-2,6.321938E-3,-3.0986086E-2,-1.970515E-2,2.778113E-1,1.5316023E-2,-9.71725E-2,3.4398973E-1,3.919059E-2,2.7857978E-2,-3.8022656E-2,-2.0825031E-1,6.178662E-2,1.3049437E-2,-1.07994854E-1,-5.485205E-2,3.214214E-1,-7.016669E-2,1.6676283E-1,3.5926676E-1,5.7450175E-2,4.9332596E-2,-4.6483606E-2,5.1128477E-2,-2.4204648E-1,-5.3706273E-2,1.5350848E-1,7.6508867E-3,9.7795054E-2,-1.3019012E-1,2.3685992E-2,-3.5203263E-2,-3.0510142E-1,-3.1889856E-2,5.14022E-1,-1.18925236E-1,1.11192286E-1,5.6307167E-2,1.0717154E-2,2.9574646E-2,2.5187945E-1,-6.608385E-2,1.0311139E-1],"categories":[],"categories_nodes":[],"categories_segments":[],"categories_sizes":[],"default_left":[1,1,1,1,1,1,0,1,1,1,1,1,1,1,1,1,1,1,0,0,0,1,1,0,0,1,1,1,1,1,0,0,0,1,0,1,0,1,0,0,0,0,0,0,0,0,0,0,0,0,0,0,0,0,0],"id":33,"left_children":[1,3,5,7,9,11,-1,13,15,17,19,21,23,25,27,29,31,33,-1,-1,-1,35,37,-1,-1,39,41,43,45,47,-1,-1,-1,49,-1,51,-1,53,-1,-1,-1,-1,-1,-1,-1,-1,-1,-1,-1,-1,-1,-1,-1,-1,-1],"loss_changes":[2.1010762E-2,4.2687908E-2,4.1042715E-2,4.6831198E-2,1.5058352E-1,2.3914006E-2,0E0,4.7555305E-2,1.8897411E-1,1.9578036E-2,4.3960124E-2,4.9886566E-2,6.576941E-2,1.10616654E-1,3.9610514E-1,8.69769E-2,3.3208907E-2,1.7008638E-2,0E0,0E0,0E0,1.5683413E-1,7.7334106E-2,0E0,0E0,6.1014745E-2,2.6465207E-2,2.0069455E-1,2.2053596E-1,7.512317E-2,0E0,0E0,0E0,7.431777E-4,0E0,8.7743714E-2,0E0,4.951649E-2,0E0,0E0,0E0,0E0,0E0,0E0,0E0,0E0,0E0,0E0,0E0,0E0,0E0,0E0,0E0,0E0,0E0],"parents":[2147483647,0,0,1,1,2,2,3,3,4,4,5,5,7,7,8,8,9,9,10,10,11,11,12,12,13,13,14,14,15,15,16,16,17,17,21,21,22,22,25,25,26,26,27,27,28,28,29,29,33,33,35,35,37,37],"right_children":[2,4,6,8,10,12,-1,14,16,18,20,22,24,26,28,30,32,34,-1,-1,-1,36,38,-1,-1,40,42,44,46,48,-1,-1,-1,50,-1,52,-1,54,-1,-1,-1,-1,-1,-1,-1,-1,-1,-1,-1,-1,-1,-1,-1,-1,-1],"split_conditions":[5E-1,5E-1,5E-1,5E-1,5E-1,5E-1,-3.9707445E-2,5E-1,5E-1,5E-1,4.65E1,4.65E1,4.65E1,5E-1,5E-1,4.65E1,4.65E1,5E-1,-2.915175E-2,1.0319693E-1,1.1757177E-2,5E-1,5E-1,-6.2475096E-2,1.8535987E-2,5E-1,5E-1,5E-1,4.65E1,5E-1,5.002885E-2,1.0778003E-1,1.7235054E-2,4.65E1,-1.3945082E-2,5E-1,-7.261395E-2,5E-1,4.6052545E-2,2.2952661E-3,2.9338518E-2,-3.905704E-2,7.105798E-3,-1.0560979E-2,-9.153043E-2,-9.566957E-3,1.542066E-1,-3.567757E-2,3.3357687E-2,1.689215E-2,3.2151463E-3,8.872394E-3,7.556384E-2,-1.9825155E-2,3.0933417E-2],"split_indices":[5,23,24,24,4,23,0,4,4,9,1,1,1,21,21,1,1,10,0,0,0,25,25,0,0,28,7,28,1,8,0,0,0,1,0,32,0,31,0,0,0,0,0,0,0,0,0,0,0,0,0,0,0,0,0],"split_type":[0,0,0,0,0,0,0,0,0,0,0,0,0,0,0,0,0,0,0,0,0,0,0,0,0,0,0,0,0,0,0,0,0,0,0,0,0,0,0,0,0,0,0,0,0,0,0,0,0,0,0,0,0,0,0],"sum_hessian":[2.51E2,2.03E2,4.8E1,1.94E2,9E0,4.6E1,2E0,1.85E2,9E0,7E0,2E0,4.4E1,2E0,1.41E2,4.4E1,7E0,2E0,6E0,1E0,1E0,1E0,2.2E1,2.2E1,1E0,1E0,1.34E2,7E0,4.2E1,2E0,6E0,1E0,1E0,1E0,4E0,2E0,2.1E1,1E0,2.1E1,1E0,1.27E2,7E0,6E0,1E0,4E1,2E0,1E0,1E0,5E0,1E0,3E0,1E0,2E1,1E0,2E1,1E0],"tree_param":{"num_deleted":"0","num_feature":"35","num_nodes":"55","size_leaf_vector":"0"}},{"base_weights":[9.780062E-4,-9.1916334E-4,4.2626824E-2,-3.0367377E-3,3.9920736E-2,8.223388E-3,1.316282E-1,4.8308067E-2,-6.5719234E-3,-1.7191386E-1,7.480696E-2,2.2481153E-2,-2.7785858E-2,3.8495064E-3,1.9359279E-1,2.0531276E-2,2.1859157E-1,-9.577172E-3,5.0578836E-2,9.893517E-2,7.848799E-3,2.837042E-2,-6.4272285E-3,-7.358849E-3,-3.4319937E-2,-7.0596156E-3,1.8960643E-1,-1.2579221E-2,4.505746E-2,-2.925083E-2,2.7320823E-1,1.08821616E-1,1.4865041E-2,-6.024043E-4,1.6601205E-2,3.592217E-2,-4.694164E-3,-3.114681E-2,1.4099336E-1,-1.561425E-2,4.0159825E-2,-2.3642974E-2,2.3613961E-1,-6.839506E-2,7.1835995E-2,-2.7106404E-2,4.3691874E-1,1.1790985E-1,2.7146101E-2,-1.7362833E-3,8.326769E-4,4.3253273E-2,3.2988787E-3],"categories":[],"categories_nodes":[],"categories_segments":[],"categories_sizes":[],"default_left":[1,1,1,1,1,1,1,1,1,0,1,1,1,0,0,1,0,1,1,1,1,1,0,0,0,1,0,1,1,1,1,1,0,1,0,1,0,0,0,0,0,0,0,0,0,0,0,0,0,0,0,0,0],"id":34,"left_children":[1,3,5,7,9,11,13,15,17,-1,19,21,23,-1,-1,25,-1,27,29,31,33,35,-1,-1,-1,37,-1,39,41,43,45,47,-1,49,-1,51,-1,-1,-1,-1,-1,-1,-1,-1,-1,-1,-1,-1,-1,-1,-1,-1,-1],"loss_changes":[1.9950928E-2,2.1049755E-2,3.2599054E-2,4.224708E-2,1.0154167E-1,5.24536E-3,2.3008026E-2,6.6460975E-2,3.7754636E-2,0E0,1.6994864E-2,1.3740875E-3,1.478598E-4,0E0,0E0,6.664763E-2,0E0,3.4518078E-2,2.0348829E-1,5.031593E-3,3.0587407E-4,1.6667973E-3,0E0,0E0,0E0,5.0751843E-2,0E0,3.2159768E-2,1.4998475E-1,4.0525924E-2,1.593373E-1,1.9952133E-3,0E0,6.3273883E-6,0E0,1.0531358E-3,0E0,0E0,0E0,0E0,0E0,0E0,0E0,0E0,0E0,0E0,0E0,0E0,0E0,0E0,0E0,0E0,0E0],"parents":[2147483647,0,0,1,1,2,2,3,3,4,4,5,5,6,6,7,7,8,8,10,10,11,11,12,12,15,15,17,17,18,18,19,19,20,20,21,21,25,25,27,27,28,28,29,29,30,30,31,31,33,33,35,35],"right_children":[2,4,6,8,10,12,14,16,18,-1,20,22,24,-1,-1,26,-1,28,30,32,34,36,-1,-1,-1,38,-1,40,42,44,46,48,-1,50,-1,52,-1,-1,-1,-1,-1,-1,-1,-1,-1,-1,-1,-1,-1,-1,-1,-1,-1],"split_conditions":[5E-1,5E-1,5E-1,4.55E1,4.55E1,5E-1,4.65E1,5E-1,5E-1,-5.157416E-2,4.65E1,5E-1,4.65E1,1.154852E-3,5.807784E-2,5E-1,6.557748E-2,5E-1,5E-1,5E-1,5E-1,5E-1,-1.9281686E-3,-2.2076548E-3,-1.0295982E-2,5E-1,5.688193E-2,5E-1,5E-1,5E-1,4.65E1,5E-1,4.4595124E-3,5E-1,4.9803616E-3,4.65E1,-1.4082491E-3,-9.344043E-3,4.2298008E-2,-4.684275E-3,1.2047948E-2,-7.0928927E-3,7.0841886E-2,-2.0518519E-2,2.1550799E-2,-8.131921E-3,1.3107562E-1,3.5372958E-2,8.143831E-3,-5.20885E-4,2.4980307E-4,1.2975982E-2,9.896636E-4],"split_indices":[19,20,4,1,1,6,1,27,21,0,1,8,1,0,0,26,0,24,4,4,5,7,0,0,0,28,0,30,4,5,1,6,0,4,0,1,0,0,0,0,0,0,0,0,0,0,0,0,0,0,0,0,0],"split_type":[0,0,0,0,0,0,0,0,0,0,0,0,0,0,0,0,0,0,0,0,0,0,0,0,0,0,0,0,0,0,0,0,0,0,0,0,0,0,0,0,0,0,0,0,0,0,0,0,0,0,0,0,0],"sum_hessian":[2.51E2,2.41E2,1E1,2.3E2,1.1E1,8E0,2E0,1.4E1,2.16E2,1E0,1E1,6E0,2E0,1E0,1E0,1.3E1,1E0,2.06E2,1E1,7E0,3E0,5E0,1E0,1E0,1E0,1.2E1,1E0,1.96E2,1E1,8E0,2E0,6E0,1E0,2E0,1E0,4E0,1E0,1.1E1,1E0,1.86E2,1E1,8E0,2E0,6E0,2E0,1E0,1E0,5E0,1E0,1E0,1E0,3E0,1E0],"tree_param":{"num_deleted":"0","num_feature":"35","num_nodes":"53","size_leaf_vector":"0"}},{"base_weights":[2.3075137E-3,4.8092118E-4,3.879929E-2,-1.1674586E-3,3.505318E-2,6.3519E-2,-5.653286E-2,-2.8595394E-3,3.2934114E-2,5.5481195E-3,1.1188396E-1,3.735691E-2,1.4948893E-1,-4.793243E-3,3.1218568E-2,4.3191206E-2,-3.481841E-2,1.725529E-2,-2.3617983E-2,3.2720566E-3,1.6455388E-1,1.3508383E-2,1.1407256E-1,-4.325453E-4,-2.2757275E-2,-2.8615236E-2,2.202584E-1,4.800432E-2,-6.341934E-5,2.1952212E-2,-5.4631233E-3,-6.2550306E-3,-2.9171944E-2,-2.5366878E-2,8.675611E-2,-5.1414487E-3,7.542406E-2,-4.178793E-2,2.3222697E-1,-5.234717E-2,4.420833E-2,2.947334E-1,3.5654187E-2,5.641481E-2,1.2378414E-2,2.7938675E-2,-3.990054E-3,3.5055645E-2,-1.6373974E-1,-5.3487837E-2,1.83622E-1],"categories":[],"categories_nodes":[],"categories_segments":[],"categories_sizes":[],"default_left":[1,1,1,1,1,1,0,1,1,1,1,1,0,1,1,1,0,1,1,0,0,1,0,1,1,1,1,1,0,1,0,0,0,1,1,0,0,0,0,0,0,0,0,0,0,0,0,0,0,0,0],"id":35,"left_children":[1,3,5,7,9,11,-1,13,15,17,19,21,-1,23,25,27,-1,29,31,-1,-1,33,-1,35,37,39,41,43,-1,45,-1,-1,-1,47,49,-1,-1,-1,-1,-1,-1,-1,-1,-1,-1,-1,-1,-1,-1,-1,-1],"loss_changes":[1.6778551E-2,1.3775082E-2,3.186991E-2,1.3423479E-2,2.4315115E-2,1.6907092E-2,0E0,1.4712865E-2,9.148234E-3,3.4806076E-3,1.6623314E-2,1.492506E-2,0E0,1.6440656E-2,1.4203441E-1,2.0849388E-3,0E0,8.6687435E-4,1.0682794E-4,0E0,0E0,2.4980929E-2,0E0,6.111203E-2,2.0865746E-1,1.9596618E-2,3.0736715E-2,1.9983556E-3,0E0,1.0432915E-3,0E0,0E0,0E0,5.590502E-2,5.0576106E-2,0E0,0E0,0E0,0E0,0E0,0E0,0E0,0E0,0E0,0E0,0E0,0E0,0E0,0E0,0E0,0E0],"parents":[2147483647,0,0,1,1,2,2,3,3,4,4,5,5,7,7,8,8,9,9,10,10,11,11,13,13,14,14,15,15,17,17,18,18,21,21,23,23,24,24,25,25,26,26,27,27,29,29,33,33,34,34],"right_children":[2,4,6,8,10,12,-1,14,16,18,20,22,-1,24,26,28,-1,30,32,-1,-1,34,-1,36,38,40,42,44,-1,46,-1,-1,-1,48,50,-1,-1,-1,-1,-1,-1,-1,-1,-1,-1,-1,-1,-1,-1,-1,-1],"split_conditions":[5E-1,5E-1,5E-1,5E-1,5E-1,5E-1,-1.6959859E-2,5E-1,5E-1,5E-1,4.65E1,5E-1,4.484668E-2,5E-1,5E-1,5E-1,-1.0445524E-2,5E-1,4.65E1,9.81617E-4,4.9366165E-2,4.65E1,3.422177E-2,5E-1,5E-1,4.65E1,4.65E1,4.65E1,-1.9025803E-5,5E-1,-1.638937E-3,-1.8765093E-3,-8.751583E-3,5E-1,5E-1,-1.5424347E-3,2.262722E-2,-1.25363795E-2,6.966809E-2,-1.5704151E-2,1.3262499E-2,8.8420026E-2,1.06962565E-2,1.6924443E-2,3.7135244E-3,8.381603E-3,-1.1970163E-3,1.0516694E-2,-4.9121924E-2,-1.6046353E-2,5.50866E-2],"split_indices":[29,19,6,32,4,9,0,23,9,6,1,7,0,4,4,8,0,8,1,0,0,1,0,28,21,1,1,1,0,7,0,0,0,4,4,0,0,0,0,0,0,0,0,0,0,0,0,0,0,0,0],"split_type":[0,0,0,0,0,0,0,0,0,0,0,0,0,0,0,0,0,0,0,0,0,0,0,0,0,0,0,0,0,0,0,0,0,0,0,0,0,0,0,0,0,0,0,0,0,0,0,0,0,0,0],"sum_hessian":[2.51E2,2.4E2,1.1E1,2.3E2,1E1,9E0,2E0,2.2E2,1E1,8E0,2E0,8E0,1E0,2.09E2,1.1E1,9E0,1E0,6E0,2E0,1E0,1E0,7E0,1E0,1.69E2,4E1,9E0,2E0,8E0,1E0,5E0,1E0,1E0,1E0,5E0,2E0,1.6E2,9E0,3.8E1,2E0,7E0,2E0,1E0,1E0,6E0,2E0,4E0,1E0,4E0,1E0,1E0,1E0],"tree_param":{"num_deleted":"0","num_feature":"35","num_nodes":"51","size_leaf_vector":"0"}},{"base_weights":[2.7774551E-3,6.4050737E-3,-1.2381966E-2,3.643827E-3,5.9608877E-2,-6.5176054E-3,-1.00129634E-1,6.380643E-4,5.918663E-2,4.3037236E-3,1.8721966E-1,-1.4924791E-3,-7.9721965E-2,-1.3098906E-1,-1.9205391E-2,3.6403995E-2,-2.259977E-3,1.100763E-1,-9.624803E-2,2.560493E-2,-7.240236E-2,2.5052345E-1,3.0306041E-2,3.9538727E-3,-7.905936E-2,-4.813358E-3,-1.1476959E-1,6.1566703E-2,-1.4535558E-1,-5.4144724E-3,5.582355E-2,4.813376E-2,1.9726928E-1,4.9071692E-2,-2.204132E-2,-5.74455E-4,6.452306E-2,-1.6681856E-1,4.8229516E-2,7.956584E-2,-7.721147E-2,3.866718E-3,-3.1837076E-2,1.106696E-1,-1.9147241E-1,-6.65915E-4,1.4606607E-1,2.7622402E-1,1.9679904E-2,5.8929384E-2,4.820466E-3,-1.6093254E-5,-3.3045888E-2,-5.103692E-3,5.8497112E-2,8.1902325E-2,1.48822665E-2],"categories":[],"categories_nodes":[],"categories_segments":[],"categories_sizes":[],"default_left":[1,1,1,1,1,1,1,1,1,1,1,1,1,0,0,1,1,1,0,1,0,0,0,1,1,0,0,1,0,1,1,1,1,1,1,1,1,0,0,0,0,0,0,0,0,0,0,0,0,0,0,0,0,0,0,0,0],"id":36,"left_children":[1,3,5,7,9,11,13,15,17,19,21,23,25,-1,-1,27,29,31,-1,33,-1,-1,-1,35,37,-1,-1,39,-1,41,43,45,47,49,51,53,55,-1,-1,-1,-1,-1,-1,-1,-1,-1,-1,-1,-1,-1,-1,-1,-1,-1,-1,-1,-1],"loss_changes":[1.39374435E-2,2.9752197E-2,2.4562009E-2,3.251719E-2,6.976959E-2,1.717049E-2,4.976131E-3,1.9361384E-2,8.969481E-2,1.4925313E-2,2.2207312E-2,1.9323135E-2,7.3236804E-3,0E0,0E0,7.297894E-2,3.2000046E-2,3.3712327E-2,0E0,8.908328E-3,0E0,0E0,0E0,1.1830983E-2,4.1557886E-2,0E0,0E0,3.861594E-2,0E0,4.0586583E-2,1.4325903E-1,2.8771657E-2,3.6628492E-2,1.8970082E-3,7.266024E-4,1.1268065E-2,1.3692696E-3,0E0,0E0,0E0,0E0,0E0,0E0,0E0,0E0,0E0,0E0,0E0,0E0,0E0,0E0,0E0,0E0,0E0,0E0,0E0,0E0],"parents":[2147483647,0,0,1,1,2,2,3,3,4,4,5,5,6,6,7,7,8,8,9,9,10,10,11,11,12,12,15,15,16,16,17,17,19,19,23,23,24,24,27,27,29,29,30,30,31,31,32,32,33,33,34,34,35,35,36,36],"right_children":[2,4,6,8,10,12,14,16,18,20,22,24,26,-1,-1,28,30,32,-1,34,-1,-1,-1,36,38,-1,-1,40,-1,42,44,46,48,50,52,54,56,-1,-1,-1,-1,-1,-1,-1,-1,-1,-1,-1,-1,-1,-1,-1,-1,-1,-1,-1,-1],"split_conditions":[5E-1,5E-1,5E-1,5E-1,5E-1,5E-1,4.65E1,4.55E1,5E-1,5E-1,4.65E1,5E-1,4.65E1,-3.929672E-2,-5.761618E-3,5E-1,5E-1,5E-1,-2.887441E-2,5E-1,-2.1720707E-2,7.515704E-2,9.091813E-3,5E-1,4.65E1,-1.4440075E-3,-3.443088E-2,5E-1,-4.3606676E-2,5E-1,5E-1,4.65E1,4.65E1,4.65E1,4.55E1,5E-1,4.65E1,-5.004557E-2,1.4468855E-2,2.3869753E-2,-2.3163442E-2,1.1600155E-3,-9.551123E-3,3.3200882E-2,-5.7441726E-2,-1.9977451E-4,4.3819822E-2,8.2867205E-2,5.9039714E-3,1.7678816E-2,1.4461399E-3,-4.827976E-6,-9.913767E-3,-1.5311077E-3,1.7549135E-2,2.4570698E-2,4.4646803E-3],"split_indices":[5,23,24,24,4,26,1,1,10,9,1,23,1,0,0,20,22,4,0,10,0,0,0,20,1,0,0,33,0,4,10,1,1,1,1,21,1,0,0,0,0,0,0,0,0,0,0,0,0,0,0,0,0,0,0,0,0],"split_type":[0,0,0,0,0,0,0,0,0,0,0,0,0,0,0,0,0,0,0,0,0,0,0,0,0,0,0,0,0,0,0,0,0,0,0,0,0,0,0,0,0,0,0,0,0,0,0,0,0,0,0,0,0,0,0,0,0],"sum_hessian":[2.51E2,2.03E2,4.8E1,1.94E2,9E0,4.6E1,2E0,1.85E2,9E0,7E0,2E0,4.4E1,2E0,1E0,1E0,1.3E1,1.72E2,7E0,2E0,6E0,1E0,1E0,1E0,4.2E1,2E0,1E0,1E0,1.2E1,1E0,1.64E2,8E0,5E0,2E0,4E0,2E0,4E1,2E0,1E0,1E0,1.1E1,1E0,1.22E2,4.2E1,7E0,1E0,4E0,1E0,1E0,1E0,3E0,1E0,1E0,1E0,3.8E1,2E0,1E0,1E0],"tree_param":{"num_deleted":"0","num_feature":"35","num_nodes":"57","size_leaf_vector":"0"}},{"base_weights":[2.0563728E-3,4.8170966E-4,3.3509493E-2,2.8878935E-2,-1.3968811E-3,-1.2355226E-1,5.901986E-2,5.9932726E-3,1.746391E-1,8.2409626E-4,-4.5083717E-2,7.537308E-2,1.1558443E-2,-1.6622901E-2,1.5000176E-1,-4.2279013E-3,2.0227907E-2,-7.640992E-2,1.3408917E-1,8.307852E-2,1.0717511E-2,1.6267696E-2,-1.2846589E-3,-3.4466695E-2,9.875131E-2,-7.161868E-3,5.003125E-2,3.695245E-2,-2.2623318E-1,-1.0513738E-1,9.1068566E-2,9.153503E-2,1.6169727E-2,-5.5162918E-2,9.659588E-2,-1.0213291E-2,4.6864286E-2,1.3763674E-1,-1.7105865E-1,2.4695326E-2,1.92149E-1,-7.1143925E-2,-2.6820585E-1,-1.2459921E-1,-2.4680635E-2,1.0053587E-1,2.3265421E-2],"categories":[],"categories_nodes":[],"categories_segments":[],"categories_sizes":[],"default_left":[1,1,1,1,1,0,1,1,0,1,1,1,1,1,0,1,1,1,0,1,0,0,0,1,0,1,1,1,1,1,0,1,0,0,0,0,0,0,0,0,0,0,0,0,0,0,0],"id":37,"left_children":[1,3,5,7,9,-1,11,13,-1,15,17,19,21,23,-1,25,27,29,-1,31,-1,-1,-1,33,-1,35,37,39,41,43,-1,45,-1,-1,-1,-1,-1,-1,-1,-1,-1,-1,-1,-1,-1,-1,-1],